长江通信 -0.649097 -0.390694 -1.390374 -0.055023 -0.073597 -0.210383 -0.020469 0.11271 -0.036494 -0.072927 -0.577575 0.163105 -0.097028 -0.060667 -0.018028 -0.060647 0.198035 -0.460867 0.025302 -0.767665 0.358758 0.305377 -0.37088 -1.093806 -0.151701 1.005949 -0.009804 -0.203125 -0.005933 -0.676861 0.254274 -0.064191 0.08758 0.277131 -0.272856 0.446226 -0.031657 -0.184316 0.064444 -0.359768 0.330102 0.094021 0.464232 -0.102347 0.49913 -0.341792 -0.83058 -0.152461 0.401284 0.860776
普路通 -0.016877 -0.015012 -0.276774 -0.148106 -0.072509 0.145928 0.004567 0.409057 -0.18814 -0.154278 -0.167588 0.180435 0.139787 -0.053099 0.035916 0.103568 -0.19182 -0.274197 0.027433 0.001454 -0.046565 0.248008 0.094913 -0.309444 0.365125 0.190009 -0.173009 0.101147 -0.409864 -0.281631 0.146402 -0.15075 0.196899 -0.150291 -0.397969 0.106457 -0.174985 -0.250124 0.00133 -0.336806 0.141178 -0.007098 0.011831 -0.085023 0.00835 -0.069613 -0.36646 -0.178466 0.206668 0.372216
蓝盾股份 -1.004087 -0.400308 -1.175485 -0.071519 0.135346 -0.18955 0.006678 -0.072961 -0.104713 0.124394 -0.746711 0.191781 -0.29361 -0.169375 -0.004208 -0.123349 0.5274 -0.229566 0.052948 -0.719596 0.577182 0.270383 0.011607 -1.087047 -0.281869 0.925887 0.153371 -0.348227 0.118295 -0.702335 -0.094085 -0.500587 0.340319 -0.032893 -0.606398 0.266087 0.151901 -0.023794 -0.326664 -0.470239 0.371855 -0.013995 0.710101 -0.162102 0.054558 -0.275669 -0.549271 -0.648085 0.012755 0.762207
大华农 -0.965892 -0.265267 -0.958223 -0.366759 0.067385 0.02082 0.103057 0.114723 -0.206362 -0.122987 -0.508211 0.24062 0.094882 0.106124 0.479173 -0.164816 0.214567 -0.207118 0.359569 -0.49871 0.122602 0.34273 -0.074862 -0.896922 -0.397158 1.06783 -0.309773 -0.266095 0.358643 -0.600293 0.057179 -0.18931 -0.19759 0.063037 -0.592273 -0.1494 -0.233464 -0.123966 -0.199671 -0.455571 0.078004 0.154795 0.326893 -0.614451 0.160394 -0.450055 -0.355662 -0.066745 0.28606 0.852209
中信银行 -0.182603 0.546518 -0.090518 -0.006741 0.084383 0.422853 0.145185 0.352208 0.309217 -0.330527 0.031385 -0.282679 0.432146 -0.164088 0.578814 0.364709 -0.698299 0.067059 0.115906 -0.421069 0.407446 0.265852 0.473361 -0.663119 0.625538 -0.179424 0.33855 -0.337623 0.29024 -0.168968 0.675168 -0.280774 0.313275 -0.421125 -0.281552 0.19459 -0.381977 -0.086755 0.227081 -0.767244 -0.215686 0.18868 0.199006 -0.341424 0.519991 0.491691 -0.133093 -0.662502 0.184885 0.111116
方直科技 -1.23964 -0.231618 -1.458418 0.017955 0.041787 0.15952 0.433038 -0.507673 -0.18621 0.129878 -0.583395 0.282971 -0.00427 -0.246508 0.286778 -0.258991 0.435588 -0.068482 0.259514 -0.721615 0.523843 0.358494 -0.144052 -0.694448 -0.231717 1.196308 -0.061489 -0.289575 0.127046 -0.900074 0.174045 -0.150262 -0.126111 0.109198 -0.281736 0.393391 -0.026497 -0.151603 -0.343346 -0.484283 0.427973 0.278386 0.530087 -0.44617 0.199969 0.102481 -0.553631 -0.618044 0.217928 0.777383
一汽富维 -1.059789 -0.300774 -1.232147 -0.139987 -0.092503 0.355935 0.118083 0.203045 0.161201 -0.095852 -0.334024 0.058212 0.025203 0.068265 -0.147988 -0.166027 0.587389 0.014767 0.163741 -0.649322 0.212739 0.211693 -0.227187 -1.065711 -0.417363 0.700466 -0.228947 -0.006999 -0.059935 -0.729567 0.261745 -0.331918 0.200374 -0.002117 -0.976019 0.158356 -0.171096 -0.258241 0.079649 -0.799224 0.123544 0.194495 0.386201 -0.059319 0.323399 -0.548143 -0.412507 -0.297133 0.433839 0.966979
亚威股份 -1.18321 -0.53654 -0.944172 -0.213541 -0.112312 -0.171424 0.174294 0.181048 -0.119036 -0.233461 -0.643257 0.228798 -0.457562 -0.187924 0.118019 -0.231218 0.218661 -0.457789 0.327076 -0.40194 0.115742 0.148 -0.315134 -1.152795 -0.279269 0.828092 -0.019462 -0.37147 -0.062298 -0.534811 0.416546 -0.093647 -0.046223 0.069472 -0.692842 0.147404 -0.352894 -0.264266 0.065177 -0.191125 0.215536 0.115845 0.583318 0.095013 0.356743 -0.080497 -0.456266 0.016522 0.461984 0.997079
瑞康医药 -0.754586 -0.10918 -0.8555 -0.338951 0.145472 0.339132 0.500555 0.122747 -0.075872 -0.047917 -0.52423 0.301143 -0.075286 -0.352344 0.370479 0.051101 0.147422 -0.101546 0.323112 -0.477198 -0.043746 0.381421 -0.167432 -0.895322 -0.439525 0.831104 0.02468 0.008994 -0.088167 -0.7636 0.287503 -0.388699 0.07723 0.042054 -0.826707 0.269165 -0.392202 -0.128589 -0.046947 -0.505614 0.02252 0.16531 0.430512 -0.29382 0.507916 -0.068411 -0.526476 -0.35603 0.416443 0.758285
钱江摩托 -0.591595 -0.228149 -1.131155 -0.139595 0.07358 -0.109268 -0.238392 0.154053 -0.141672 0.213296 -0.612038 0.048185 -0.280899 -0.28663 -0.001869 -0.210466 0.394694 -0.570048 0.410653 -0.516442 0.238164 0.304669 -0.493695 -1.130399 -0.274047 1.09059 -0.302712 -0.141121 0.253809 -0.730261 0.432109 0.217304 0.142368 -0.000488 -0.576373 0.480732 -0.403455 -0.143639 0.27 -0.194187 0.091121 0.122622 0.487726 -0.207139 0.064144 -0.290225 -0.58988 -0.349107 0.087108 1.082315
郑煤机 -0.943524 -0.415674 -1.341029 -0.482603 0.29171 0.328554 0.637661 0.252026 0.1397 0.12965 -0.370435 0.124137 -0.156308 0.602912 0.280103 0.327786 0.408576 -0.306557 0.114453 -0.446085 0.042054 -0.071852 -0.255605 -0.89119 -0.318643 0.305807 -0.193625 -0.161187 -0.313297 -0.754177 0.43307 -0.270389 0.376079 0.419438 -0.885186 -0.291389 -0.590478 0.030146 -0.051752 -0.498176 0.484684 0.295293 0.7934 -0.212561 0.418725 0.023832 -0.390103 -0.05787 0.280611 0.872041
三一重工 -0.378581 0.289542 -0.829072 0.088087 -0.144123 0.054108 -0.128949 0.000328 0.349129 -0.36586 -0.139145 -0.20322 -0.403105 0.09149 0.055491 0.005056 0.112248 -0.294386 0.195224 -0.456402 0.150185 0.235746 0.075374 -0.623406 -0.101937 0.5117 0.028724 -0.196426 -0.038835 -0.471192 -0.078807 -0.183936 0.247805 0.436093 -0.369245 0.32574 -0.396161 -0.270446 0.08366 -0.003902 -0.175436 0.325909 0.419355 -0.029488 0.289439 -0.292838 -0.530122 -0.208152 0.246336 0.095749
汇中股份 -0.934735 -0.441323 -1.082651 -0.253399 0.161367 -0.062276 0.339882 0.052519 -0.15009 0.200828 -0.601304 0.344252 -0.20897 0.041445 0.167526 -0.35671 0.261776 -0.112524 0.31057 -0.552582 0.234856 0.460645 -0.205427 -0.981937 -0.336008 1.215762 -0.357482 0.014289 0.227591 -0.840216 0.046515 -0.311356 -0.339099 0.106956 -0.43687 0.292139 0.030778 -0.200012 0.2048 -1.159141 0.172051 -0.111034 0.29357 -0.229521 0.080674 -0.425357 -0.550333 -0.393239 0.161281 0.847748
荣盛石化 -0.809131 -0.083588 -1.372195 -0.188507 0.463075 0.057325 0.103983 0.216327 -0.047293 -0.157543 -0.515409 0.209705 -0.204446 0.0537 0.161218 -0.005553 0.206682 -0.385285 0.142556 -0.699461 0.131913 0.08125 -0.280751 -1.074855 -0.212776 0.609074 -0.35591 -0.082332 0.238673 -0.91649 0.029069 -0.199683 0.289421 0.352515 -0.656106 0.324664 -0.180289 -0.20565 -0.167508 -0.500907 -0.058492 0.153875 0.395414 -0.317586 0.186804 -0.181457 -0.487258 -0.217767 0.367042 0.668473
东方电缆 -0.689491 -0.193089 -0.599055 -0.405918 0.495136 -0.100587 0.143134 0.404787 -0.33101 0.005494 -0.606097 -0.133593 0.138911 -0.246918 0.367572 0.018817 -0.41653 -0.568591 0.533953 -0.424667 -0.060087 0.512924 -0.436115 -0.823809 0.43321 0.764546 -0.374289 -0.169261 0.104238 -0.93309 0.408495 -0.207797 -0.002034 0.149466 -0.24116 0.321289 -0.403482 -0.368974 0.297303 -0.405502 0.095449 0.20277 0.444687 0.068888 0.30295 -0.032119 -0.255517 -0.62399 0.165117 0.624527
浙江东日 -0.656611 -0.219978 -0.956088 -0.145483 0.331384 0.246879 -0.023346 -0.286429 0.175746 0.315157 -0.182608 0.32495 0.19688 -0.031069 0.415814 -0.213946 0.62763 0.064135 0.010095 -0.669334 0.338192 0.186696 -0.188518 -0.864715 -0.173701 0.511971 -0.223494 -0.145723 0.159863 -1.0807 0.337804 -0.001827 -0.085646 0.123486 -0.317272 0.797087 -0.189519 0.066259 -0.015169 -0.606467 0.016019 0.125778 0.693233 -0.395842 -0.041146 -0.26581 -0.406498 -0.502035 0.363027 0.327883
中百集团 -0.329496 0.151027 -1.031304 -0.078808 0.235592 0.337353 0.081619 -0.079324 0.285594 -0.328285 -0.317353 0.111205 -0.400445 0.190103 0.353866 -0.224434 0.063621 -0.368959 0.624382 -0.588831 -0.199794 0.363711 -0.174149 -1.030143 -0.153881 0.471541 0.049301 0.079859 -0.246307 -1.254103 0.040248 -0.229069 -0.033021 -0.013288 -0.3383 0.67886 -0.391066 0.118713 0.294728 0.090499 -0.067873 0.012393 0.522624 -0.242295 0.341216 -0.294628 -0.080919 -0.391505 0.314474 0.513988
欧比特 -0.757283 -0.37015 -1.017484 0.026758 0.070175 -0.208755 -0.003324 -0.039217 -0.029827 -0.151696 -0.567197 -0.054812 -0.050895 -0.100164 0.004468 -0.044168 0.294606 -0.339704 0.202783 -0.509009 0.348781 0.287381 0.040491 -0.938853 -0.280896 0.978653 -0.002479 -0.086978 -0.145441 -0.674276 0.237831 -0.283203 0.010584 0.17495 -0.478397 0.172429 0.003328 -0.008239 -0.104599 -0.451824 0.339017 -0.042245 0.521778 -0.313799 0.145791 -0.233154 -0.41827 -0.268163 0.379837 0.7136
宁波东力 -0.014231 -0.106784 -0.469496 -0.216391 -0.043108 -0.115078 -0.327907 0.666365 0.183589 -0.551 -0.235838 -0.130327 0.173293 -0.186357 -0.127983 -0.047592 0.081776 -0.49921 0.260557 0.125954 -0.250397 0.044163 -0.026826 -0.626041 0.239763 0.530768 -0.407784 -0.030623 -0.03383 -0.115182 0.335456 0.067531 0.10665 0.068401 -0.490982 0.212941 -0.188435 -0.544709 0.245696 -0.120724 -0.111061 -0.097743 0.175612 0.205405 0.26935 -0.164181 -0.262464 -0.243829 0.298503 0.817438
山推股份 -1.204069 -0.146657 -1.094697 -0.418654 0.171549 0.371635 0.201764 0.131386 0.322363 -0.046962 -0.151507 0.434307 -0.255774 -0.028535 0.040569 -0.101222 0.444983 -0.286678 0.322488 -0.707939 0.284371 0.038747 -0.302492 -0.820067 -0.426025 0.463796 -0.1568 -0.237731 -0.044976 -0.732302 0.142587 -0.23615 0.231593 0.388452 -0.622102 0.098812 -0.091331 -0.087917 0.07554 -0.528532 0.181739 0.398848 0.786271 -0.139987 0.31847 -0.308869 -0.693872 -0.015157 0.161522 0.73649
渤海轮渡 -0.656207 0.087291 -0.7664 0.288697 -0.115206 -0.318283 -0.219826 -0.188454 0.12892 -0.129156 -0.271077 0.135489 -0.013877 -0.195165 0.13813 0.128463 0.238367 -0.345086 0.084657 -0.378059 0.203957 0.109596 -0.314149 -0.72583 -0.284729 0.004609 -0.046042 -0.326001 0.035556 -0.961628 0.32458 -0.251273 0.141208 -0.136737 -0.443719 -0.144561 -0.267104 -0.505868 0.390213 -0.217642 0.013132 0.076648 0.34493 -0.150074 0.106832 -0.366518 -0.111539 -0.093278 0.529809 0.532309
亚太股份 -0.81372 -0.159253 -1.040268 -0.187109 -0.276618 -0.075339 0.045671 -0.103492 -0.10365 0.321952 -0.319513 -0.140976 -0.044842 -0.300188 -0.403818 0.150158 0.491943 -0.455524 0.4884 -0.446058 0.219281 0.418879 -0.276008 -0.993285 -0.41031 0.828728 -0.414987 -0.384213 -0.23173 -0.701463 0.231879 0.155258 0.354138 0.199735 -0.763401 0.045731 -0.10974 0.043323 0.047138 -0.456163 0.034755 0.136721 0.219407 -0.091429 0.139403 -0.520397 -0.479398 -0.316295 0.479206 0.813114
哈投股份 -0.74769 -0.184267 -1.20605 -0.253022 0.079837 0.035134 0.100811 0.268813 0.098431 0.140656 -0.599312 0.295488 -0.312633 0.19647 0.427206 -0.123895 0.349175 -0.50717 0.141563 -0.445382 0.0988 0.221742 -0.633326 -1.18748 -0.231917 0.627358 -0.226854 -0.216518 0.197163 -0.929704 0.486162 -0.171173 0.144034 0.317747 -0.590519 0.603922 -0.282983 -0.297798 0.242745 -0.394034 0.126257 0.196649 0.746672 -0.181401 0.175947 -0.38503 -0.315097 -0.214542 0.54497 0.947315
中海发展 -0.912498 0.017863 -0.974465 0.035317 0.101879 -0.075175 -0.421965 0.264234 0.160834 -0.486255 -0.305421 -0.201733 -0.206017 0.121215 0.04589 0.073489 0.127697 -0.221292 0.224716 -0.296535 0.233868 0.118134 -0.384206 -1.042348 -0.137068 -0.045801 -0.106394 -0.439014 0.070411 -0.814852 0.246628 0.012085 0.149425 0.200805 -0.454313 0.159869 -0.252146 -0.378441 0.186928 -0.38355 -0.077921 -0.012095 0.54122 -0.15525 0.167171 -0.284671 -0.350185 -0.223084 0.405488 0.383239
摩恩电气 -0.951827 -0.126729 -0.885966 -0.346705 0.152592 0.354202 -0.071608 0.135188 0.103347 -0.162864 -0.419385 -0.082916 -0.42004 0.134274 0.1688 -0.175182 0.350069 -0.285138 0.469451 -0.857714 0.382129 0.428443 -0.241927 -0.944129 -0.221874 0.984129 -0.367111 -0.218759 -0.084039 -0.720893 0.159171 0.00517 -0.112684 0.323206 -0.528016 0.351004 -0.268764 -0.149653 0.109597 -0.419945 0.081926 0.078063 0.492757 -0.052217 0.04788 -0.383677 -0.257407 -0.064075 0.257204 0.868966
成发科技 -1.330066 -0.206667 -1.454802 0.159324 0.013017 -0.331493 0.231218 0.085425 0.004113 0.02855 -0.436367 0.361424 -0.162578 -0.41567 0.085059 -0.120909 0.667264 -0.363837 0.053057 -0.545201 0.333976 0.114353 -0.417614 -1.080669 -0.512833 0.723197 -0.275873 -0.52835 0.208518 -0.874727 0.351158 -0.307091 0.440765 0.370928 -0.583708 0.342221 0.234058 -0.200939 -0.148562 -0.592015 -0.099445 0.073511 0.621222 -0.106272 0.095482 -0.221804 -0.605237 -0.337306 0.550533 0.834626
新宙邦 -1.079127 -0.454717 -1.21839 0.034504 0.098808 -0.021244 -0.165755 0.047509 -0.057886 -0.06133 -0.583866 -0.042665 -0.176009 -0.030179 -0.02586 0.070838 0.462651 -0.332339 0.080272 -0.717432 0.173632 0.192794 -0.208627 -0.845936 -0.31923 0.745792 -0.264932 -0.271013 0.127639 -0.652008 0.098693 -0.366162 0.374265 0.181735 -0.516204 0.142867 -0.271162 0.022554 -0.199314 -0.55547 0.173815 0.069656 0.637458 -0.13051 0.256744 -0.180943 -0.539368 -0.227693 0.508892 0.947982
创元科技 -1.045884 -0.568304 -1.30355 -0.035956 -0.205929 -0.083681 0.031138 0.089716 0.028324 0.302326 -0.625768 0.221682 -0.288398 -0.204267 0.079096 0.114361 0.555002 -0.224101 0.287981 -0.755334 0.392071 0.200705 -0.461883 -0.920024 -0.388261 0.973595 -0.342266 -0.248312 0.117699 -0.693097 0.182922 -0.376987 -0.111248 0.074764 -0.828774 0.197399 0.052846 -0.035348 -0.401486 -0.333693 0.272985 -0.213417 0.715545 -0.16088 0.123698 -0.566728 -0.418742 -0.483715 0.300023 1.129117
黔轮胎Ａ -0.794633 -0.518346 -0.779571 -0.467611 -0.262338 0.150201 -0.086071 0.300996 0.117856 -0.150353 -0.42595 0.084786 -0.049863 0.041829 -0.228298 -0.052133 0.139176 -0.247983 0.192089 -0.624007 0.102282 0.170419 -0.718523 -0.823696 -0.379526 0.637255 -0.377772 -0.387307 -0.11973 -0.447304 0.521665 0.224712 0.143636 -0.10372 -0.241866 0.131848 -0.300315 -0.413039 -0.048254 -0.259841 0.194055 0.255087 0.434709 -0.377453 0.031963 -0.054393 -0.433476 0.129831 0.237589 1.010788
滨江集团 -0.468829 -0.100507 -0.995496 -0.305106 -0.057692 0.498168 0.104985 0.169744 0.429399 -0.370216 -0.154065 0.12775 -0.035718 0.030204 0.229284 -0.064444 0.0521 -0.24727 0.228889 -0.744734 0.200075 0.271336 -0.374279 -0.83951 0.244499 0.414105 -0.236422 0.270194 -0.137136 -0.952181 0.155903 -0.308287 -0.330506 0.194951 -0.57194 0.156324 -0.479893 0.065504 0.325151 -0.110236 -0.020155 -0.04417 0.225346 -0.176835 0.063646 -0.406406 -0.341363 -0.423814 0.7623 0.089878
海虹控股 -0.471247 -0.012954 -0.699152 -0.017836 -0.166912 -0.142837 -0.018837 -0.100585 0.101032 -0.099263 -0.269116 -0.160806 -0.184306 -0.164566 0.094867 -0.091202 -0.022178 -0.093472 0.121084 -0.384408 0.346962 0.449522 -0.254015 -0.807581 -0.1394 0.725242 0.379248 -0.307117 0.148626 -0.661473 0.281261 -0.318094 0.164386 0.044821 -0.176616 0.416327 -0.008639 -0.207431 -0.115072 -0.10985 -0.043357 0.290029 0.265975 -0.314014 0.315953 -0.056227 -0.421061 -0.070397 0.250681 0.449071
海联讯 -0.161549 -0.038049 -0.474761 -0.357086 0.136224 -0.0278 0.130886 0.060196 0.142018 0.16217 0.185147 -0.045499 -0.075851 0.185928 -0.002172 -0.166985 0.187293 -0.024977 0.438178 -0.558202 0.237928 0.672949 -0.09337 -0.988276 -0.070934 0.936194 -0.153734 -0.320598 -0.234004 -0.395746 0.400548 0.020834 0.034836 -0.324317 -0.138704 0.719308 -0.472822 0.09432 0.161381 0.281381 -0.326659 0.071899 0.72111 -0.035179 0.218206 -0.022768 -0.127208 -0.416259 -0.143185 0.234931
北矿磁材 -0.955599 -0.23705 -1.242283 0.010895 -0.031969 -0.29775 -0.153088 0.1413 -0.095586 0.036652 -0.599487 0.288658 -0.371274 0.112621 0.181225 -0.058553 0.715004 -0.185355 0.277233 -0.600639 0.231706 0.128059 -0.411996 -1.010479 -0.118317 1.109708 -0.474575 -0.152243 0.242016 -0.901874 0.280374 -0.012113 0.33537 0.29541 -0.606728 0.191909 -0.018728 -0.381473 -0.24474 -0.624058 0.400972 0.031163 0.385189 -0.21472 0.330315 -0.556384 -0.769285 -0.216777 0.105318 0.848337
嘉凯城 -0.452679 0.222526 -0.7227 -0.153329 0.071143 0.160618 -0.157499 -0.218464 0.377866 -0.329216 -0.364862 -0.06473 0.117938 0.007778 0.037466 -0.153191 -0.182852 -0.21978 0.310533 -0.365368 0.244701 0.254627 -0.289777 -0.665572 0.380883 0.471013 -0.092374 0.17485 -0.053329 -0.958435 0.113202 -0.129093 -0.119755 0.018615 -0.139167 -0.034167 -0.320364 0.119213 0.306203 0.260465 -0.134615 0.025167 0.181601 -0.266546 -0.203584 -0.145122 -0.719433 -0.191706 0.721897 0.21935
智慧能源 -0.3321 -0.240637 -0.896905 0.321821 -0.219253 -0.58658 -0.395695 0.283076 0.164385 -0.465084 -0.741383 -0.474316 0.188097 -0.015736 -0.156824 0.109104 0.309754 -0.674086 0.210013 -0.413452 0.66861 0.261185 0.202782 -0.426606 0.115057 0.573103 0.002756 -0.059858 -0.138872 -0.347721 0.150756 -0.372205 0.524891 -0.11188 -0.252436 -0.008885 -0.126897 0.112592 -0.016907 0.303272 0.235785 0.153242 0.126693 -0.069991 0.132593 0.189041 -0.620764 0.223484 0.511524 0.570553
中国联通 -0.157495 0.035907 -0.603885 -0.301615 -0.384002 -0.114562 0.166284 -0.041979 -0.097964 -0.169062 -0.633243 -0.602804 -0.003818 -0.004617 -0.019167 0.459202 -0.251624 0.084576 0.431163 -0.723724 0.312726 0.451957 0.497847 -0.589218 0.125636 -0.232368 0.588319 0.068242 -0.133321 -0.374822 -0.186571 -0.233279 -0.07806 -0.324199 0.282312 0.237257 -0.020129 -0.40722 0.128667 0.072773 -0.092751 0.42617 -0.085789 0.14183 0.803475 0.111594 0.171664 -0.117659 0.279018 0.343954
利尔化学 -0.970073 -0.46232 -0.994758 -0.358743 0.053481 -0.156431 -0.079162 0.150913 -0.15426 -0.205344 -0.749921 0.082051 0.014753 0.112503 0.147348 -0.070016 0.31648 -0.200729 0.328473 -0.51491 0.10775 0.348533 0.040234 -0.913283 -0.579956 0.872763 -0.147763 -0.075863 0.247889 -0.548496 0.257657 0.017053 0.286651 0.06845 -0.740328 -0.127566 -0.496975 0.054398 0.006674 -0.353774 0.081537 -0.230657 0.083337 -0.237221 0.132351 -0.481543 -0.559806 -0.077408 0.618928 0.871786
华泰股份 -0.965761 -0.387362 -1.213362 -0.219969 0.181879 0.200636 0.082624 0.279532 -0.012843 0.301612 -0.592053 0.523229 0.044545 0.357041 -0.059091 0.03061 0.603718 -0.205692 0.116247 -0.645066 -0.120547 -0.093723 -0.755662 -1.047385 -0.281611 0.940992 -0.32 0.008016 0.283344 -0.906385 0.217639 -0.059176 -0.02284 0.266561 -0.493808 0.469714 -0.292791 -0.12091 -0.261807 -0.701872 0.35552 0.169236 0.516809 -0.056971 0.131609 -0.565697 -0.667363 -0.269542 0.281576 0.781466
湖南海利 -0.623878 -0.224251 -0.992996 -0.39589 -0.028611 0.301718 0.291394 0.382788 -0.147066 0.251222 -0.968606 0.175624 0.208621 -0.072451 0.108248 -0.153143 0.485075 -0.188973 0.234665 -0.591203 -0.071306 0.37254 -0.264249 -1.080961 -0.303664 0.71713 -0.386282 -0.107408 0.306623 -0.538089 0.417491 0.175118 -0.212653 0.316117 -0.72248 0.465825 -0.201619 -0.226823 -0.194931 -0.6543 0.346754 -0.081151 0.451147 -0.042873 0.215924 -0.601481 -0.359233 -0.20055 0.200334 1.032878
航天信息 -1.120256 -0.312304 -0.974488 -0.252056 0.046753 -0.015632 0.323467 0.067765 0.028156 0.071862 -0.376172 0.004776 -0.059716 -0.027336 0.174166 0.219282 0.475956 -0.336512 0.071972 -0.699766 0.395001 0.152363 0.148809 -0.765974 -0.230793 0.520247 0.099829 -0.110457 0.012548 -0.663633 0.103665 -0.528946 0.283203 -0.080136 -0.556906 0.173606 -0.083555 0.070853 -0.133644 -0.460868 0.365101 0.266191 0.658852 -0.254403 0.161483 0.132133 -0.673752 -0.282986 0.308142 0.666874
日海通讯 -1.114129 -0.207233 -1.371155 -0.237838 -0.090503 -0.118561 -0.060782 -0.337862 -0.211156 -0.04634 -0.60851 -0.121599 -0.239601 0.051488 0.200266 0.190199 0.177363 -0.090759 0.191241 -0.884149 0.298804 0.528291 0.21958 -0.911986 -0.242373 0.666767 -0.231217 -0.418235 -0.036163 -0.650943 -0.197862 -0.17187 0.088586 0.127487 -0.404824 0.289068 -0.091739 -0.21119 -0.141102 -0.196771 0.443203 -0.168389 0.214907 -0.083286 0.233363 -0.136921 -0.552295 -0.479666 0.631741 0.772467
东方通信 -0.647478 -0.305671 -1.294905 -0.139006 -0.281275 -0.289954 0.125159 -0.082904 -0.000659 0.124323 -0.629791 -0.121177 0.005441 0.060326 -0.049963 0.006244 0.197181 -0.415904 0.101054 -0.544218 0.691957 0.483222 0.142923 -0.998515 -0.134994 0.641216 0.157838 -0.266167 0.085882 -0.884288 0.045324 -0.32084 0.175252 0.161973 -0.390503 0.32286 0.08184 -0.094197 -0.070497 -0.362508 0.318431 0.067334 0.352408 -0.234236 0.320696 0.003817 -0.575955 -0.111274 0.513999 0.73374
世纪游轮 -0.706358 0.18039 -0.664273 0.066412 -0.106203 -0.323966 -0.175395 -0.011291 0.169673 0.148503 -0.286971 0.112821 0.079506 -0.192291 0.078415 0.245383 0.313084 -0.295222 0.127551 -0.601379 0.44586 0.019274 -0.377673 -0.434889 -0.50048 0.375937 -0.029006 -0.172539 0.210107 -1.033875 0.164667 -0.18788 -0.244281 -0.088939 -0.196188 -0.001766 -0.353476 -0.380218 0.461328 -0.108324 -0.176641 0.035858 0.393189 0.001481 -0.05615 -0.285508 -0.343172 -0.353232 0.482395 0.672011
深高速 -0.395358 0.409339 -0.194775 -0.145114 0.109 -0.191308 -0.611489 -0.522393 -0.661903 0.416488 0.012234 0.491695 0.629671 -0.346486 0.051061 0.550209 0.464298 -0.11986 0.2836 0.233593 0.333101 -0.000869 -0.873469 -0.250074 -0.134051 -0.518867 0.178692 -0.151756 -0.351232 -1.306897 -0.297847 -0.437671 -0.039836 -0.240848 -0.13727 0.275623 -0.17457 -0.488714 1.120741 -0.502931 -0.094185 0.102247 -0.381046 -0.015721 0.457733 -0.273136 -0.741918 -0.461786 0.014336 0.376577
中国中期 -0.736039 -0.295836 -1.009551 -0.294942 -0.13808 0.07435 0.042467 0.11616 0.042804 -0.058669 -0.278045 -0.076845 0.215753 -0.121815 0.461298 -0.108153 0.373868 -0.337419 0.110851 -0.749714 0.183967 -0.11222 -0.176763 -1.169254 -0.293252 0.452427 -0.284212 -0.222342 0.073294 -0.630358 0.389583 -0.095908 0.443261 0.069244 -0.578362 0.479602 -0.1614 -0.200355 0.143604 -0.250998 -0.194842 0.225135 0.57921 -0.36541 0.059398 0.059421 -0.502886 -0.006469 0.354264 0.376826
世纪瑞尔 -1.038504 -0.26495 -1.155169 -0.202483 0.178018 0.019508 0.043016 -0.072752 -0.045083 0.237004 -0.395044 -0.039799 -0.030147 -0.306898 0.287554 -0.081337 0.33337 -0.235746 0.395623 -0.541325 0.417976 0.57835 -0.19507 -1.024413 -0.115646 0.546319 -0.002639 -0.390898 -0.223177 -0.901976 0.119866 -0.262132 -0.042388 0.048681 -0.62554 0.163503 0.127197 -0.16021 0.228928 -0.564842 0.127506 0.144189 0.753146 0.125775 0.059052 -0.318599 -0.741341 -0.555389 0.177674 0.605416
福斯特 -0.456636 -0.479977 -0.02221 0.023546 0.160258 0.182287 -0.14053 -0.336528 0.064936 -0.447578 -0.086407 0.049874 -0.50164 -0.295989 -0.120257 -0.024788 -0.467984 -0.412163 -0.149887 0.417309 0.312962 0.024529 0.033022 -0.449813 -0.185079 0.118307 -0.243562 0.044111 -0.087168 0.059903 -0.054567 -0.034448 0.006951 0.379761 -0.679889 0.375151 -0.026776 -0.365564 -0.472623 -0.360843 -0.47575 0.092767 -0.231796 -0.022381 -0.343136 0.549608 -0.33887 -0.160682 -0.272114 -0.225462
深纺织Ａ -0.482969 -0.423955 -0.567438 -0.131821 -0.207044 0.334802 0.029522 0.315519 0.035751 0.305365 -0.253184 0.238472 0.090535 -0.041881 0.155159 -0.056108 0.216407 -0.50385 0.122977 -0.496636 -0.145345 0.301357 -0.397955 -0.649696 -0.155803 0.297409 -0.137619 0.202564 0.205835 -0.404245 0.340067 0.137697 0.012868 0.360091 -0.274467 0.119444 0.082913 -0.257059 -0.147769 -0.548938 0.496508 0.070466 0.405839 -0.303312 0.422181 -0.152983 -0.089926 -0.104135 0.272997 0.836702
万里股份 -0.68406 -0.340967 -0.746284 -0.240938 -0.021974 -0.043001 0.147653 0.305043 -0.22696 -0.102538 -0.324762 0.198586 -0.120176 -0.170989 -0.058369 0.10245 -0.103666 -0.583208 0.509312 -0.451249 0.021646 0.244321 -0.358693 -0.932565 -0.128177 1.021186 -0.505443 -0.158745 -0.010913 -0.790995 0.224368 0.093384 -0.044591 0.14325 -0.175516 0.41479 -0.326112 -0.276556 0.277415 -0.371964 0.145378 0.153287 0.319253 -0.382897 0.302154 -0.301675 -0.099837 -0.142401 0.402222 0.949818
裕兴股份 -0.942616 -0.277491 -0.763302 -0.378441 0.023314 0.303158 0.29335 0.094166 0.021357 -0.06063 -0.671474 0.358376 -0.052331 0.005383 -0.102036 -0.066064 0.291012 -0.114241 0.357734 -0.541806 -0.005479 0.249339 -0.188242 -0.901971 -0.28447 0.903494 -0.444542 -0.245059 0.089881 -0.820259 -0.121009 0.018447 -0.155205 0.208424 -0.837534 0.09351 -0.153849 0.086635 0.24223 -0.699575 0.103183 -0.00772 0.376932 -0.400056 0.09247 -0.40815 -0.37416 -0.402311 0.355037 0.990263
泰达股份 -0.807556 -0.078021 -1.293471 -0.077278 0.115757 0.245991 -0.174334 0.163752 0.267933 -0.079433 -0.361302 0.266627 -0.21414 0.138618 0.233971 0.15507 0.228361 -0.436945 0.291502 -0.603954 0.184104 0.564655 -0.174565 -1.159901 -0.123625 0.828668 -0.133325 2.4e-05 0.239226 -1.031285 0.51588 -0.14064 0.164114 0.228839 -0.47398 0.541803 -0.205605 0.062882 0.109382 -0.346666 0.159688 0.107987 0.405797 -0.304849 -0.096189 -0.519174 -0.617914 -0.265605 0.058854 0.742956
中兴通讯 -0.308597 0.065155 -0.65095 -0.038177 -0.496309 0.08042 -0.003239 -0.058536 0.244521 -0.453938 -0.443295 -0.444725 0.005083 -0.097635 -0.174193 0.393393 0.007135 -0.083896 0.13241 -0.66947 0.264053 0.352516 0.510667 -0.657994 0.065 -0.00143 0.51669 0.144412 -0.453193 -0.234929 -0.144663 -0.095025 0.194135 -0.08205 -0.161912 0.127243 -0.245761 -0.316796 0.106096 -0.106897 0.090847 0.147868 0.14986 -0.157143 0.486119 -0.010101 -0.125344 -0.03372 0.327529 0.393222
齐星铁塔 -0.907182 -0.517855 -1.104792 -0.249289 0.043136 0.300975 0.275307 0.140461 -0.160461 0.075556 -0.770354 0.152933 -0.095655 -0.173143 0.145283 -0.201275 0.174465 -0.29811 0.330376 -0.566403 0.322459 0.263435 -0.64918 -0.863892 -0.297522 1.07605 -0.381494 -0.234689 -0.010395 -1.083773 0.320171 -0.043266 0.005041 0.165413 -0.307586 0.487183 -0.147308 -0.153939 0.060238 -0.332324 0.138188 0.086317 0.505518 -0.107238 0.226693 -0.26884 -0.526098 -0.393203 0.523053 1.052049
上海莱士 -0.737525 -0.173986 -0.877517 -0.222788 0.148806 -0.03212 0.089428 -0.002382 0.172875 -0.069081 -0.519282 0.276844 -0.119895 0.070545 0.313778 -0.175549 0.313187 -0.141951 0.306635 -0.425424 0.126711 0.60207 -0.087351 -0.909005 -0.308545 0.69739 -0.12126 -0.235183 0.180999 -0.619242 0.087848 -0.28226 0.041933 0.230638 -0.441144 0.09954 -0.318427 0.053396 0.137466 -0.220637 -0.079423 0.153205 0.375135 -0.220791 0.322567 -0.427344 -0.491131 -0.407376 0.342864 0.434431
麦捷科技 -0.893242 -0.52505 -0.909306 -0.420517 0.203016 0.168848 0.261747 -0.097479 0.057414 0.009857 -0.42875 0.157206 -0.04385 0.047182 0.221375 -0.403455 0.431779 -0.320998 0.271726 -0.621754 0.184015 0.374597 -0.244812 -1.079265 -0.345488 1.052039 -0.349876 -0.30357 -0.203966 -0.787641 0.174079 0.039723 0.011008 0.051188 -0.433237 0.283328 -0.024948 -0.252959 -0.050269 -0.661369 0.162544 0.206111 0.471375 -0.407617 0.052728 -0.37352 -0.194093 -0.404525 0.295667 0.627042
中恒电气 -0.943166 -0.390403 -1.428995 -0.246109 -0.131952 -0.091401 -0.029063 -0.209289 0.052276 0.03415 -0.659376 0.005229 -0.200619 -0.114944 0.011684 0.149984 0.335472 -0.277251 0.136514 -0.763237 0.352548 0.314628 -0.215431 -0.97479 -0.094493 0.935905 -0.133695 -0.297866 0.046699 -0.687969 0.114193 -0.039981 -0.009461 -0.028239 -0.384839 0.465517 -0.030168 -0.162407 0.144177 -0.478879 0.328325 0.019631 0.63126 -0.257402 0.048883 -0.200996 -0.587005 -0.341185 0.47645 1.10452
中国高科 -0.2258 0.036851 -0.665995 0.394105 -0.027707 -0.487357 0.145306 -0.116076 0.262088 -0.28751 -0.6752 0.08755 -0.027616 -0.075814 0.005733 0.160675 0.07807 -0.468198 0.249545 -0.466358 0.103952 0.374504 0.409932 -0.720899 0.081692 0.692334 0.1 -0.318248 -0.215869 -0.59995 0.405806 -0.049105 0.570135 0.378572 -0.011383 0.293838 -0.762335 -0.099984 0.16907 -0.124923 -0.10045 0.127809 0.134294 -0.030975 0.507801 0.103351 -0.325313 -0.134025 0.263219 0.383013
华胜天成 -0.559276 -0.10948 -1.051414 0.013208 -0.144489 -0.445185 -0.188315 0.017869 0.233922 -0.176972 -0.877621 -0.295336 0.003247 -0.036988 -0.13852 -0.032017 0.139575 -0.253773 0.428535 -0.678055 0.502478 0.271786 0.229889 -0.529472 0.03382 0.577625 0.542587 -0.076357 -0.16317 -0.731896 0.06956 -0.353102 0.30141 -0.043646 -0.277592 0.364433 0.065846 -0.178691 -0.133393 -0.276062 0.106003 0.268497 0.224718 -0.033821 0.330495 -0.079154 -0.524236 -0.343832 0.299857 0.30806
智飞生物 -0.47392 -0.173872 -0.841611 -0.064855 0.312464 -0.023913 0.281098 0.020739 0.257828 -0.316971 -0.395607 0.236513 -0.160561 0.0027 0.080316 -0.184254 0.038827 -0.27502 0.420065 -0.636001 -0.033666 0.429591 0.042427 -0.946201 -0.318271 0.784433 -0.157469 -0.093908 0.10883 -0.536584 0.228493 -0.411826 0.222574 0.171845 -0.545538 0.204755 -0.3365 0.206746 -0.014209 -0.374078 -0.065215 0.107974 0.306789 -0.26497 0.280637 -0.241151 -0.377114 -0.105599 0.455409 0.286955
荣盛发展 -0.727528 -0.165331 -1.172826 -0.457655 0.06339 0.407071 -0.183329 -0.138995 0.279789 -0.030256 -0.307403 -0.00987 0.08371 0.10207 0.546724 -0.240387 0.329141 -0.227096 0.297779 -0.776493 0.245699 0.065015 -0.291626 -0.932793 -0.072665 0.594827 -0.099071 0.166234 0.089572 -0.906454 0.125587 -0.350789 0.069445 0.177728 -0.571975 0.281676 -0.42783 0.091779 0.05948 -0.19526 0.000809 0.044037 0.273653 -0.338537 0.003935 -0.321735 -0.636758 -0.437971 0.70428 0.481922
鹏博士 -0.1691 0.064917 -0.759583 -0.043851 -0.280365 -0.193573 -0.11777 -0.405722 -0.040137 -0.029012 -0.822295 -0.40016 -0.132175 0.048098 0.193615 0.476382 -0.11177 -0.0555 0.206454 -0.616534 0.474474 0.426966 0.430792 -0.407764 0.135604 0.20827 0.504801 -0.044464 -0.198742 -0.405517 -0.051379 -0.485918 0.264019 -0.365059 -0.038258 0.16966 -0.156311 -0.271307 -0.005037 0.097964 0.011272 0.329652 0.151941 0.001589 0.283691 0.068151 -0.232725 -0.055123 0.549517 0.565885
恒瑞医药 -1.115683 -0.306751 -1.077509 -0.327355 0.060991 0.163965 0.361387 -0.039327 -0.002631 -0.223404 -0.278637 0.268193 0.289969 0.025678 0.249319 0.25608 0.440487 0.007455 0.300293 -0.8282 0.13175 0.2069 -0.143897 -1.184441 -0.729355 0.796292 0.095212 0.080083 0.010922 -0.601132 0.069234 -0.492906 0.315846 0.342387 -0.873941 0.1068 -0.464811 0.213191 0.029746 -0.414441 0.052941 0.128316 0.395769 -0.23672 0.333861 0.105846 -0.542535 -0.196082 0.122241 0.539974
蓝色光标 -0.51337 0.140984 -0.791864 0.08595 -0.151288 0.288606 -0.143632 -0.260926 -0.059232 -0.384948 -0.46487 0.044442 -0.084103 0.24154 0.036711 -0.073278 0.018099 -0.204147 0.290854 -0.411458 0.126067 0.390545 0.089192 -0.391632 -0.233601 0.537374 0.307317 -0.134801 -0.072668 -1.125088 0.268748 -0.304458 0.221437 0.113714 -0.691343 0.27305 -0.277616 -0.227297 0.071732 -0.183755 -0.017194 0.231064 0.52913 -0.24705 0.077745 0.050733 -0.364322 -0.507828 0.144739 0.477713
华联矿业 -0.555002 -0.526987 -0.995205 -0.181127 0.147469 0.204698 0.029742 0.236302 0.070088 -0.234433 -0.65119 0.416206 -0.06227 0.224515 0.225988 -0.086875 0.222735 -0.362234 0.315065 -0.453208 -0.024764 0.425668 -0.48354 -0.984137 -0.156879 0.890239 -0.433747 0.139189 0.340342 -0.641872 0.267243 0.120197 -0.148604 0.147877 -0.555895 0.706174 -0.382737 -0.374434 0.108271 -0.636755 0.172162 0.228684 0.362869 -0.170789 0.333104 -0.303103 -0.200916 -0.167792 0.366029 0.818945
九强生物 -0.45924 -0.07911 -0.100725 -0.210002 0.228253 -0.107558 -0.490305 0.065782 -0.347604 -0.155461 -0.266586 0.058359 0.074628 -0.222323 0.061066 0.324194 0.171985 -0.209064 0.662703 -0.41317 0.188543 0.359884 0.05071 -0.892394 -0.156764 0.846158 -0.065458 -0.380152 0.180747 -0.475525 0.389931 -0.180776 0.100844 0.023076 -0.053752 0.079218 -0.285376 -0.214137 0.299138 -0.20589 -0.467949 -0.01824 0.526714 0.035688 0.407216 -0.022173 -0.370472 0.191329 0.353059 0.351074
德联集团 -0.883552 -0.396427 -0.88969 -0.167341 0.041204 0.212176 0.108708 -0.27598 -0.008211 0.05385 -0.726358 -0.034182 -0.002521 0.164824 -0.199059 -0.173173 0.702578 -0.130876 0.119326 -0.485325 0.048491 0.129192 -0.269927 -0.987712 -0.272186 0.951111 -0.183813 -0.112872 0.326078 -0.934301 0.273719 0.112601 -0.035582 -0.019499 -0.493919 0.374014 -0.214846 -0.077099 -0.056773 -0.821246 0.055036 0.180939 0.625465 -0.06747 0.081736 -0.375652 -0.260643 -0.353735 0.402738 0.731152
太安堂 -0.6723 -0.119944 -0.99597 -0.451436 -0.010795 -0.165854 0.146222 -0.178816 0.092388 -0.175566 -0.729851 0.056181 0.140645 -0.097897 0.040321 -0.129112 0.105734 -0.103586 0.170813 -0.510774 0.282659 0.445552 -0.228972 -0.851622 -0.267701 0.765148 0.307472 0.00691 0.176132 -0.704271 0.204998 -0.457663 -0.068663 -0.020922 -0.515422 0.057395 -0.423895 -0.193955 0.08842 -0.28059 -0.035551 0.171977 0.621257 -0.203694 0.210045 -0.282815 -0.368412 -0.186241 0.407601 0.505335
国旅联合 -0.642948 0.006271 -0.96999 0.275583 0.1109 -0.177337 -0.474284 0.102496 0.14958 -0.000142 -0.539892 0.433706 -0.045566 0.150248 0.196728 -0.020301 0.487755 -0.440576 0.055915 -0.630375 0.149227 0.101079 -0.406766 -0.8038 -0.304771 0.506167 -0.221787 0.004156 0.194778 -0.950145 0.109688 -0.096962 -0.239174 -0.077279 -0.545978 0.392064 -0.309322 -0.340197 0.309936 0.05707 -0.020448 0.273508 0.195477 -0.173278 -0.152423 -0.58559 -0.674395 -0.476268 0.43787 0.699487
道明光学 -0.598669 -0.586242 -0.943909 -0.401719 0.347984 0.126826 0.130761 0.167313 -0.143424 -0.040807 -0.419238 0.376632 -0.054881 -0.172369 0.194775 0.127844 0.298261 -0.181164 0.322654 -0.763939 0.031246 0.171953 -0.3972 -1.150061 -0.334568 0.985818 -0.319958 0.002409 -0.045072 -0.791008 0.294477 -0.212477 -0.032348 0.354771 -0.525679 0.313695 -0.149802 -0.102748 0.101694 -0.518644 0.053204 0.150834 0.627647 -0.376804 0.222548 -0.35129 -0.001999 -0.363511 0.019073 0.672282
江南嘉捷 -0.833659 -0.430165 -0.762343 -0.15358 -0.147402 0.419435 0.265515 0.200661 0.001752 0.019321 -0.50342 0.238861 0.066863 -0.282852 -0.01024 0.046324 0.555559 -0.315317 -0.087988 -0.474811 0.24142 0.139559 -0.617843 -1.158985 -0.242051 0.748331 -0.216144 -0.006784 -0.059135 -0.626778 0.135306 -0.194384 0.09273 0.34797 -0.582164 0.076109 -0.127941 -0.243102 0.062381 -0.774619 0.477103 0.112497 0.463712 0.088548 0.308167 -0.389524 -0.712481 -0.435673 0.211459 0.703234
粤电力Ａ -0.080238 -0.046155 -0.365125 -0.179176 -0.056324 0.152342 0.009325 0.34348 0.083295 0.053488 -0.152473 0.248641 -0.022526 0.133615 -0.143498 0.015172 0.085109 -0.370955 0.133114 -0.093306 -0.139901 0.137105 -0.092811 -0.298701 -0.032392 0.299799 -0.132361 0.108816 -0.30534 -0.413713 0.302906 0.054415 0.115677 -0.153453 -0.387943 0.145463 0.009852 -0.268652 0.082924 -0.236788 0.150567 0.085372 -0.059181 0.072054 0.100817 -0.022636 -0.101455 -0.222364 0.148418 0.542177
佳都科技 -0.674827 -0.036395 -0.922884 0.01586 0.065472 -0.323396 -0.169063 -0.07816 -0.32379 -0.13476 -0.532193 -0.187952 0.022569 -0.107201 0.098759 0.089658 -0.05607 -0.629461 0.215999 -0.556719 0.483792 0.443532 0.134795 -0.851911 -0.154044 0.695644 0.053801 -0.185196 -0.007478 -0.566309 0.091464 -0.450351 -0.109692 0.238564 -0.424495 0.148997 -0.143016 -0.047585 0.136651 -0.22652 0.261088 -0.084315 0.311872 -0.196679 0.077376 -0.006133 -0.640557 -0.019314 0.536508 1.03036
天药股份 -0.792868 -0.413486 -1.09452 -0.176009 -0.231097 0.006095 -0.002696 0.142338 0.042431 0.058562 -0.703978 0.324595 0.055678 -0.048592 0.124435 -0.21088 0.549666 -0.454321 0.207045 -0.651298 -0.019394 0.680345 -0.235845 -1.359851 -0.406849 0.951282 -0.338964 -0.266418 0.203412 -0.679713 0.2269 0.018211 -0.163633 0.214381 -0.760727 0.344556 -0.209322 -0.000915 0.037096 -0.519072 0.016501 0.214794 0.124253 -0.049975 0.123448 -0.481055 -0.429297 0.229635 0.212345 0.80416
陕西金叶 -0.810728 -0.188608 -1.26025 -0.118935 -0.068032 0.127473 -0.010613 0.081262 -0.186094 0.238656 -0.722093 0.525739 0.083651 -0.038755 -0.112689 -0.046632 0.463427 -0.411174 0.179199 -0.65675 0.360977 0.193971 -0.17382 -0.981795 -0.1064 1.01993 -0.138233 -0.192836 0.284128 -0.760294 0.139558 0.108265 -0.185237 0.275605 -0.443651 0.519416 -0.356399 -0.051451 -0.156212 -0.747841 0.526694 0.069039 0.479208 -0.225579 0.265005 -0.065898 -0.512872 -0.394208 0.174822 0.843168
建峰化工 -0.638821 -0.153456 -0.726387 -0.18613 0.180103 0.122469 -0.35248 0.215931 0.152993 -0.201716 -0.383073 -0.004016 -0.343499 0.180737 -0.312504 0.044355 0.289191 -0.121294 0.375112 -0.490587 0.003652 0.393349 -0.551662 -0.820311 0.154297 0.618685 -0.429427 -0.321266 0.013303 -0.715744 0.389665 0.062881 0.19142 0.117241 -0.336761 0.147938 -0.047009 -0.253621 0.463139 0.137071 -0.10926 0.231879 0.277816 0.057285 0.456951 -0.475408 -0.47688 0.16131 0.051079 1.003402
海峡股份 -0.849683 0.013066 -0.887401 -0.273309 -0.057829 -0.142461 -0.257187 0.165904 0.023132 0.136107 -0.157475 0.185258 -0.285325 -0.33007 0.050175 0.071875 0.213224 -0.440602 0.186003 -0.713675 0.213922 0.177252 -0.440048 -0.791292 -0.291661 0.113674 -0.015884 -0.410029 0.235267 -0.950004 0.287185 -0.171303 -0.018791 -0.141224 -0.309991 0.215617 -0.274835 -0.36524 0.118534 0.094588 -0.06937 0.419271 0.509519 -0.306434 0.133995 -0.182255 -0.296419 -0.123574 0.253088 1.001923
西藏矿业 -0.711622 -0.375686 -1.025731 -0.132319 0.200877 -0.249363 -0.151293 0.371924 0.142828 -0.154413 -0.603641 0.120959 -0.321945 0.147495 0.058028 0.093689 0.43619 -0.300323 0.321918 -0.560017 0.213211 0.222981 -0.518409 -0.962109 -0.23074 0.621224 -0.094191 -0.199243 0.122913 -0.870237 0.609864 -0.265524 0.142345 0.326159 -0.499109 0.487628 -0.495604 0.015678 -0.093696 -0.165653 0.170987 0.096616 0.279777 -0.266755 0.048795 -0.164709 -0.377278 -0.302194 0.196687 0.96224
天通股份 -0.68585 -0.498515 -1.398739 -0.116145 0.26439 -0.317224 0.001117 -0.02045 -0.16476 -0.212768 -0.602581 -0.251817 -0.168331 -0.064598 0.231005 0.159621 0.482676 -0.164657 0.123581 -0.706677 0.133903 0.185063 -0.343199 -0.979621 -0.240685 0.8222 -0.091354 -0.151906 0.447213 -0.532915 -0.002515 -0.124022 0.096916 0.409741 -0.548176 0.174349 0.068234 -0.102922 -0.084386 -0.491717 -0.100167 0.075944 0.53337 -0.409823 0.344831 -0.328987 -0.730939 -0.184316 0.377491 0.948723
申能股份 -1.048853 -0.221746 -1.247682 -0.198227 0.070539 0.261102 -0.00882 0.292861 0.009405 -0.009804 -0.579681 0.257781 -0.28135 0.060353 0.10284 0.20166 0.310555 -0.543963 0.41335 -0.617538 0.15597 0.257854 -0.53504 -1.135607 -0.050241 0.718553 -0.435643 -0.162334 0.017356 -1.124575 0.529011 -0.442498 0.103292 0.057236 -0.618133 0.148476 -0.196495 -0.170034 0.152227 -0.448489 0.289958 0.093556 0.816096 -0.237403 0.34779 -0.578353 -0.551102 -0.327598 0.197056 0.832458
中国国航 -0.796045 -0.140296 -0.921179 0.313531 0.041138 -0.055169 0.00288 0.296188 0.196145 -0.111255 0.166233 -0.009689 -0.072256 -0.324055 -0.043373 0.223161 0.128504 -0.174331 0.174857 -0.432987 0.289267 0.118537 -0.126633 -0.828101 -0.261561 -0.070345 0.378748 -0.569686 -0.031275 -0.813294 0.229221 -0.350936 0.134942 0.11149 -0.599766 0.272693 -0.203919 -0.594604 0.197792 0.009044 0.033206 0.335164 0.573759 -0.057754 0.334362 -0.058508 -0.139824 -0.416881 0.29797 0.368084
兰州黄河 -0.372054 -0.042588 -0.664783 -0.036111 0.138582 -0.027308 -0.097248 0.037476 0.272216 -0.174789 -0.287982 0.126011 0.006691 0.022122 0.24261 -0.113701 0.278308 -0.144949 0.171999 -0.198402 0.16749 0.120918 -0.105064 -0.572827 -0.287632 0.554408 -0.15737 0.130722 0.442019 -0.815874 -0.193756 0.157263 -0.14256 0.053677 -0.496107 0.015892 -0.219852 -0.261409 0.412016 -0.413131 -0.041053 -0.132285 0.305195 -0.212238 0.261409 -0.361556 -0.780529 -0.301192 0.112825 0.590129
齐峰新材 -0.853484 -0.377872 -0.807814 -0.251818 -0.252693 0.229112 0.04478 0.169876 0.049529 -0.204208 -0.856175 0.213124 0.032761 -0.014009 0.166778 0.06088 0.259871 -0.169571 0.282626 -0.443671 0.247042 0.508603 -0.433166 -0.809268 -0.550851 1.073076 -0.445927 -0.135152 0.065795 -0.715015 0.269615 0.007892 -0.198613 0.204935 -1.051626 0.425523 -0.27815 -0.413252 0.047629 -0.681387 0.150073 0.214511 0.354921 -0.246533 0.154855 -0.289825 -0.327429 -0.398298 0.493039 1.028385
浙大网新 -0.594204 -0.166383 -0.905914 0.141581 -0.17413 -0.326283 -0.112887 0.02327 0.195947 -0.228433 -0.778595 -0.077629 -0.309698 -0.056349 0.045228 -0.048222 -0.092281 -0.357052 0.149103 -0.672995 0.514582 0.483757 0.217904 -0.811189 0.065613 0.695007 0.502218 -0.122678 -0.045503 -0.735316 0.184292 -0.330371 0.184602 0.116399 -0.459922 0.245555 0.039542 -0.370282 -0.23287 -0.142898 0.326744 0.04718 0.246702 -0.069956 0.242621 -0.105986 -0.65209 -0.200523 0.122397 0.410531
东华实业 -0.483406 -0.121032 -0.986545 -0.266514 0.100867 0.015815 0.000397 0.019691 -0.122076 0.060015 -0.235548 0.253237 -0.164103 0.222191 0.009861 -0.222774 0.05812 -0.430486 0.315885 -0.523279 0.285417 0.378388 -0.302276 -1.026719 0.020925 0.850586 -0.184135 -0.159339 0.045191 -1.055535 0.339593 -0.082801 -0.101829 0.433482 -0.292471 0.554619 -0.296567 -0.165193 0.080508 -0.238447 -0.067925 0.057015 0.447013 -0.454404 0.079063 -0.36861 -0.59878 -0.22014 0.388024 0.594052
南宁糖业 -0.665165 0.09606 -0.946473 -0.434891 0.163779 -0.02375 -0.024448 0.132956 0.151848 -0.185345 -0.30923 -0.122573 -0.248646 0.201382 0.191283 0.005116 0.224077 -0.051323 0.346532 -0.504312 0.070758 0.194289 -0.353652 -1.052286 -0.075376 0.56227 -0.238995 -0.242598 0.168307 -0.655885 0.213266 0.150468 0.151763 0.064528 -0.28955 0.310555 -0.232118 -0.052199 0.083061 -9.6e-05 -0.179774 0.141956 0.712387 -0.214403 0.048441 -0.551754 -0.191609 -0.012512 0.172123 0.379252
龙溪股份 -1.152799 -0.432162 -0.803614 -0.171841 0.199852 0.0478 -0.033738 -0.022437 -0.178779 0.145514 -0.564243 0.268486 0.007338 -0.073889 -0.194913 -0.272269 0.71358 -0.49579 0.075408 -0.3283 0.003128 0.115244 -0.238243 -0.808004 -0.469246 0.718955 -0.296739 -0.288087 -7.3e-05 -0.786284 0.245561 -0.251548 -0.024741 0.40244 -0.688111 0.245053 -0.175311 -0.107973 -0.062514 -0.42965 0.087702 0.369708 0.623566 -0.227718 0.288557 -0.449446 -0.401922 -0.081041 0.263936 1.054522
黄河旋风 -1.127777 -0.824971 -1.312057 -0.096939 0.098722 0.006513 0.073398 0.380168 -0.078572 -0.087585 -0.618925 0.427319 -0.020397 0.16439 0.168852 0.079183 0.636091 -0.247161 0.294563 -0.649554 0.016398 0.225746 -0.304812 -0.968418 -0.358431 0.872225 -0.500863 -0.162993 -0.07392 -0.865725 0.493533 -0.018808 0.223046 0.342451 -0.899816 0.046328 -0.274142 -0.047668 -0.208218 -0.875507 0.332363 0.061373 0.444937 -0.499582 0.12057 -0.274791 -0.7118 -0.055309 0.409186 1.085644
润和软件 -0.897903 -0.234987 -0.995531 0.02891 -0.257295 -0.099876 0.04587 -0.230816 -0.135887 -0.103925 -0.602778 -0.081315 0.05726 -0.107984 0.065991 0.014242 0.242637 -0.358787 0.211305 -0.620097 0.373119 0.258482 0.139375 -0.830635 -0.289007 0.630546 0.141336 -0.179962 -0.111526 -0.588229 0.124656 -0.284656 0.237154 0.082365 -0.479452 0.169033 -0.036823 -0.232007 0.120482 -0.279425 0.223024 0.208141 0.324108 -0.147123 0.142692 -0.281335 -0.680354 -0.369782 0.389544 0.682241
华映科技 -0.576874 -0.05965 -0.811849 -0.166243 -0.00707 -0.003646 -0.21158 -0.111107 0.151991 -0.338623 -0.427629 -0.048599 -0.416625 -0.001211 0.307539 -0.29125 -0.039898 -0.337075 0.300807 -0.555094 -0.045475 0.360242 -0.244184 -0.87597 0.098045 0.748689 -0.195907 -0.164022 0.312524 -0.709753 0.506721 -0.109596 -0.212527 0.067142 -0.300103 0.615099 -0.179664 0.113612 0.214532 -0.056523 0.034151 0.146076 0.610551 -0.548878 0.353682 -0.245559 -0.192817 -0.225212 0.279298 0.640495
奥拓电子 -0.525401 -0.260073 -0.973722 -0.307415 0.036476 0.015414 0.093768 -0.21347 0.085123 -0.118841 -0.459553 0.17272 -0.01219 -0.258422 0.191051 0.107775 0.14575 -0.287259 -0.245473 -0.667404 0.345589 0.26272 -0.089476 -0.839697 -0.280526 0.963375 -0.046671 0.087597 0.075935 -0.514512 0.424288 -0.392741 -0.138754 0.289011 -0.498661 0.26066 -0.152112 -0.232625 -0.028291 -0.502331 0.171987 0.077766 0.507381 -0.28035 0.283601 -0.132184 -0.687806 -0.002704 0.3893 0.819926
众生药业 -1.201327 -0.413731 -1.267444 -0.470293 0.076055 0.110108 0.218897 -0.087478 -0.340777 0.132989 -0.764916 0.422476 0.263853 -0.005789 0.158905 -0.200262 0.510051 -0.221726 0.194477 -0.829523 0.246057 0.251435 -0.184311 -1.138719 -0.40533 1.03613 -0.332022 -0.009409 0.104279 -0.718869 0.411508 -0.446574 0.177308 0.18695 -0.599481 0.170846 -0.25863 -0.078513 0.096671 -0.476381 0.244207 -0.04494 0.351731 -0.441301 0.195513 -0.069109 -0.377844 -0.223696 0.116186 0.591497
汉威电子 -0.931524 -0.635832 -1.144504 -0.218639 -0.044059 0.046416 0.218314 0.062802 -0.015046 0.14463 -0.601865 0.014046 -0.134562 0.077906 0.248017 0.305385 0.672854 -0.468102 0.046552 -0.578548 0.297778 0.467167 -0.058405 -0.836923 -0.474872 0.820893 -0.141185 -0.27064 -0.104282 -0.717992 -0.046781 -0.330919 0.040611 0.155237 -0.459662 0.082073 0.135434 0.000452 -0.21409 -0.482458 0.330769 -0.116871 0.430409 -0.134955 0.303723 -0.241877 -0.584835 -0.40891 0.373421 0.966106
威海广泰 -1.251811 -0.391392 -1.502399 -0.06206 0.178783 -0.08168 0.101634 0.126208 -0.069136 0.060179 -0.350799 0.208588 -0.065527 -0.378922 -0.094989 0.052827 0.752917 -0.352899 0.007453 -0.500987 0.395105 0.126284 -0.218915 -1.029379 -0.481598 0.564522 -0.303137 -0.580923 0.059029 -0.936227 0.330045 -0.221457 0.125578 0.210901 -0.631201 0.252668 0.107268 -0.317057 -0.005999 -0.307952 0.085314 0.062884 0.767182 -0.261749 0.086379 -0.311341 -0.45307 -0.120547 0.556895 1.133111
凯利泰 -1.026643 -0.327374 -1.012737 -0.127974 0.20829 0.037324 0.274997 -0.130856 -0.22012 -0.362217 -0.630379 0.378715 -0.091555 -0.300229 0.122153 -0.204629 0.517101 -0.081922 0.16365 -0.459492 0.284218 0.606141 -0.039771 -1.222949 -0.40993 1.397144 0.002166 -0.21549 0.270627 -0.769272 -0.124951 -0.355237 0.144918 0.246256 -0.564684 -0.027817 -0.211145 0.059639 0.085546 -0.71764 -0.044094 -0.017964 0.534805 -0.394619 0.227299 -0.202176 -0.696939 -0.154592 0.374367 0.894264
网宿科技 -0.501584 0.015572 -0.764988 -0.141693 -0.153334 -0.203558 -0.157203 -0.269747 0.186198 -0.172761 -0.509505 -0.324177 -0.234303 0.018662 0.106822 -0.084877 0.085886 0.083249 0.238517 -0.74179 0.462862 0.301284 0.27675 -0.303612 -0.1604 0.413251 0.462152 -0.068734 -0.20935 -0.770319 -0.094486 -0.518406 0.298171 -0.127621 -0.441388 0.286525 0.181425 -0.17262 -0.163617 -0.303528 0.199425 0.137834 0.366905 -0.319948 0.13087 -0.208111 -0.590902 -0.37497 0.27765 0.43916
应流股份 -0.897514 -0.143805 -1.044551 -0.159399 0.078464 -0.059047 0.440223 0.152742 -0.200837 0.102241 -0.435926 0.229741 -0.170526 -0.263898 0.042734 -0.081351 0.372758 -0.525113 0.151224 -0.638286 0.144322 0.335289 -0.160462 -0.82007 -0.101975 0.98705 -0.264683 -0.062866 0.067028 -0.970788 0.184233 -0.400763 -0.144721 0.207406 -0.259513 0.252879 0.08977 -0.138688 0.043837 -0.616783 0.355095 0.123009 0.733691 -0.271965 0.271912 -0.44697 -0.306696 -0.378727 0.217478 0.891928
旋极信息 -0.816514 -0.166738 -0.968234 -0.191577 0.130118 -0.194132 0.164792 -0.090863 -0.06636 -0.222917 -0.303793 0.153529 -0.089123 -0.161921 0.137102 -0.356276 0.152948 -0.136421 0.28647 -0.611959 0.21602 0.649709 -0.089038 -1.037933 -0.401866 1.049173 -0.107088 -0.170372 0.141953 -0.960461 -0.161534 -0.077913 0.063988 0.198194 -0.397375 0.509863 -0.015087 -0.111259 -0.092641 -0.414509 0.140446 0.0215 0.678759 -0.31766 0.287941 -0.054658 -0.54175 -0.418899 0.113595 0.758536
宜安科技 -0.94038 -0.720961 -1.273586 -0.098728 0.021699 0.098476 0.175017 0.096764 -0.073369 0.077266 -0.701624 0.148967 0.159999 -0.316046 0.041275 0.03178 0.499495 -0.202301 -0.048821 -0.754714 0.032131 0.435505 -0.452787 -1.021784 -0.453967 1.185648 -0.289292 0.01228 0.129277 -0.651507 0.005949 0.122045 -0.191823 0.110278 -0.568315 0.313658 0.110481 -0.006255 -0.134305 -0.608652 0.451183 0.181775 0.570973 -0.278617 0.461432 -0.289401 -0.397221 -0.267584 0.305975 1.16506
戴维医疗 -0.941135 -0.329249 -1.17179 -0.060262 0.091169 0.121805 0.224159 -0.128547 0.012946 -0.15465 -0.71117 0.489305 -0.018615 -0.099991 0.131902 -0.121953 0.680233 -0.060087 0.06892 -0.550157 0.44287 0.454308 -0.237151 -1.068126 -0.453317 1.257794 -0.165848 -0.256785 0.491199 -0.500656 0.047683 -0.199232 0.155842 0.131288 -0.606354 0.063042 -0.137072 -0.049649 -0.239766 -0.867405 0.289448 -0.047229 0.519906 -0.410657 0.100006 -0.237438 -0.583455 -0.244198 0.210774 0.823115
千方科技 -0.971525 -0.105997 -1.272432 -0.132706 -0.047077 -0.25613 0.065406 -0.131369 -0.27159 -0.029091 -0.463945 0.176057 0.12835 -0.134409 0.042253 0.000301 0.207413 -0.421989 0.30305 -0.249203 0.381197 0.32855 -0.06411 -0.93531 -0.228111 0.528832 0.188954 -0.238102 -0.284898 -0.867788 -0.167491 -0.557524 0.091752 0.051944 -0.887823 0.155377 0.049909 -0.187859 0.368064 -0.26758 0.166012 0.238863 0.462597 -0.272874 -0.008458 -0.190936 -0.662929 -0.352006 0.565336 1.021126
天山纺织 -0.344615 -0.396756 -0.943204 -0.570916 -0.199581 -0.039114 -0.097153 0.473465 -0.186406 0.028578 -0.329275 0.07229 -0.084469 0.252754 -0.188678 0.015207 0.325621 -0.522853 0.429568 -0.285301 0.306442 0.065484 -0.408854 -1.103233 -0.191359 1.099246 -0.279924 -0.512236 0.138344 -1.000835 0.220498 -0.098394 -0.005603 0.028253 -0.424039 0.868972 -0.331061 -0.167788 -0.025322 -0.208366 0.112614 0.314332 0.620979 -0.232124 0.0519 -0.086329 -0.441365 -0.343313 0.483252 0.719683
天威视讯 -1.026946 -0.112148 -1.285741 -0.270283 -0.013277 0.052066 -0.118596 -0.075259 0.055738 0.130263 -0.303048 -0.010624 -0.328901 0.071043 0.281349 0.206105 0.293343 -0.055481 0.251304 -0.582757 0.536858 0.240582 -0.142632 -0.9139 -0.139684 0.727854 0.080461 -0.38706 0.181551 -0.988318 0.027954 -0.443675 0.006645 0.020853 -0.324991 0.468194 -0.002779 -0.212681 0.110285 -0.380122 0.300952 0.087923 0.708027 -0.33295 0.146808 -0.091054 -0.522013 -0.293367 -0.142222 0.856307
大北农 -0.829065 -0.300025 -0.966644 -0.184364 0.023874 0.059856 -0.124617 0.09191 0.099785 -0.214275 -0.308308 -0.209184 0.270368 0.101531 0.27607 -0.040153 0.436011 0.041796 0.212271 -0.472727 -0.042593 0.365208 0.00378 -0.702455 -0.275122 0.640009 -0.043252 -0.186047 -0.004746 -0.848413 0.058529 -0.179543 0.165749 -0.040012 -0.706705 0.187199 -0.48488 -0.128814 -0.424162 -0.03896 0.047922 0.290303 0.227571 -0.085198 0.052476 -0.216879 -0.439331 -0.128093 0.439938 0.605071
长江传媒 -0.45125 -0.1343 -0.816144 0.069673 -0.300988 -0.011551 -0.309342 -0.363925 -0.000617 -0.097401 -0.361236 -0.274119 0.082206 0.059734 0.14526 -0.14535 -0.171754 -0.276609 0.433848 -0.351741 0.498923 0.165444 -0.271261 -0.718309 0.197749 0.756032 0.29359 -0.081304 0.233062 -0.915919 0.309711 -0.099507 -0.241549 0.28214 -0.285847 0.275959 -0.230774 -0.266966 -0.036262 0.076061 0.264093 0.137786 0.185064 -0.24228 0.348884 0.227694 -0.310443 -0.059261 0.263293 0.433823
中毅达 -0.330946 -0.107934 -0.194482 -0.096971 0.181534 -0.106133 -0.187967 0.195302 -0.025629 -0.238937 -0.58418 0.192731 -0.323642 0.429428 0.175322 0.167121 0.102328 -0.48428 0.20619 0.178245 0.223842 0.353235 0.049361 -0.244607 0.488854 0.376669 -0.094882 0.067781 -0.2966 -0.047655 0.296001 -0.222618 -0.168029 -0.102416 -0.450481 0.355993 -0.782427 -0.336816 0.123867 0.181349 0.162469 -0.055762 -0.216379 -0.070292 0.138662 -0.151183 -0.47934 -0.28105 0.219365 0.516651
国栋建设 -0.822482 -0.393736 -1.066111 -0.295069 0.169045 -0.052528 0.146596 0.262689 0.010301 0.007693 -0.594814 0.410274 0.074083 0.018402 0.058046 -0.016134 0.409364 -0.415222 0.313162 -0.684719 0.007619 0.147407 -0.536684 -1.027172 -0.086556 0.780775 -0.538003 -0.020027 0.006016 -0.619812 0.278506 -0.061358 0.146548 0.232414 -0.588289 0.207547 -0.298723 -0.199077 0.0245 -0.763845 0.228514 0.208761 0.261385 -0.368604 0.211079 -0.556167 -0.514721 -0.218906 0.499892 1.05106
恒邦股份 -1.050103 -0.528082 -1.150255 0.04902 0.400195 0.147545 -0.161449 0.121032 0.255479 -0.116501 -0.471268 0.373879 -0.433183 -0.144942 0.290054 -0.412058 0.456889 0.02307 -0.078683 -0.917862 0.14 0.125299 -0.333524 -0.961797 -0.433904 0.78497 -0.505721 -0.118591 0.484499 -1.063139 0.293762 0.121374 0.224916 0.142941 -0.514651 -0.0178 0.206246 -0.087677 -0.273107 -0.815939 0.208044 0.272409 0.745565 -0.409339 0.128604 -0.668982 -0.46785 -0.448836 -0.035219 0.679252
廊坊发展 -0.864134 -0.140814 -1.285377 -0.048067 0.325302 -0.040805 -0.107995 0.034163 0.092722 0.129813 -0.472635 0.190017 -0.022264 -0.157229 0.319851 -0.294862 0.30985 -0.144024 0.045904 -0.677217 0.37289 0.017674 -0.468374 -1.10283 -0.085493 0.60386 -0.317368 -0.184117 0.392153 -1.215554 0.238081 -0.338952 0.105955 0.14 -0.269559 0.261632 -0.004342 -0.112698 0.22171 -0.498904 0.172024 0.121208 0.258882 -0.375239 -0.06096 -0.395678 -0.809763 -0.35296 0.551414 0.574653
广生堂 -0.005498 0.046909 -0.343497 -0.222587 -0.132596 -0.244703 -0.071621 0.186419 -0.278092 -0.43326 -0.348081 -0.188794 0.188764 0.189128 -0.080134 0.148598 -0.383983 -0.232068 0.238801 -0.086444 -0.016052 0.420242 0.025487 -0.679255 0.069939 0.541988 0.149286 -0.125257 0.123998 -0.362107 0.023887 -0.435206 0.025809 0.0432 -0.127282 -0.205659 -0.307992 -0.052905 0.266392 -0.286372 -0.597106 -0.398634 0.109606 0.150276 0.399783 -0.052488 -0.318918 0.277871 0.258615 -0.139007
晋西车轴 -1.530896 -0.287306 -1.437513 -0.274457 0.206543 -0.012189 0.058728 0.112215 0.02836 0.189507 -0.610541 -0.058968 0.045696 -0.168264 0.288754 0.113066 0.89297 -0.380239 0.157776 -0.62614 0.35471 0.011626 -0.531032 -1.134116 -0.311576 0.466851 -0.076978 -0.009892 0.104579 -0.972869 0.231423 -0.260001 0.341354 0.107823 -0.808866 0.212699 0.176414 -0.485247 0.316739 -0.729846 0.066537 0.276186 0.754288 0.251362 -0.135063 -0.509635 -0.675503 -0.152985 0.234385 0.902518
金瑞科技 -0.849159 -0.465757 -1.427361 0.038028 0.077295 -0.135347 -0.176232 0.012011 0.173419 -0.004103 -0.702745 0.094089 -0.152904 0.027077 0.122476 0.098974 0.633285 -0.46127 0.285744 -0.648483 0.15658 0.174085 -0.566769 -1.031845 -0.224099 0.827079 -0.435515 -0.073223 0.300971 -0.886539 0.291099 -0.09147 0.435832 0.302682 -0.588584 0.322196 -0.168087 -0.064662 -0.027848 -0.509323 0.19996 0.310003 0.614554 -0.236731 0.330466 -0.529453 -0.391689 -0.201425 0.258818 1.092714
维格娜丝 -0.342517 0.120059 -0.425687 -0.31935 0.087867 0.209607 0.083276 0.227184 -0.17227 -0.348314 -0.056603 0.083455 0.586474 0.312443 -0.294088 -0.198584 -0.236902 -0.152154 0.188394 -0.490465 0.328014 0.073694 -0.110277 -0.589954 -0.036694 0.685841 -0.11219 -0.455448 0.054937 -0.296443 0.38942 -0.310334 -0.134454 0.249408 0.138297 0.187034 -0.379565 -0.653714 0.357145 -0.39378 -0.551171 -0.277658 0.543373 0.204962 0.215982 -0.344622 -0.503841 -0.360698 0.348809 0.431323
亚太实业 -0.817702 -0.212214 -1.05042 -0.187654 0.105995 0.027932 0.095138 0.380898 0.02757 -0.124857 -0.414329 0.421247 -0.244591 0.096229 0.100261 -0.157297 0.343498 -0.386109 0.318019 -0.518441 0.124814 0.377987 -0.517233 -1.004222 -0.23022 0.799843 -0.29498 -0.037225 0.43281 -1.097229 0.115375 -0.141025 -0.333738 0.131217 -0.481891 0.304956 -0.177591 -0.263179 0.184183 -0.477986 0.081472 0.044444 0.483996 -0.272483 -0.12188 -0.309357 -0.559246 -0.376252 0.646326 0.568711
安阳钢铁 -0.555751 0.103856 -0.899577 -0.440238 0.154214 0.309062 0.068314 0.512456 0.078096 -0.269833 -0.169491 -0.088366 0.091344 0.453936 -0.097699 0.150566 0.006962 0.002307 0.464467 -0.615917 0.035545 0.174076 -0.507077 -0.939505 0.065012 0.667933 -0.330786 -0.26935 0.060106 -0.57278 0.278009 -0.219728 -0.072701 0.358458 -0.604834 0.251703 -0.139892 -0.386284 0.202713 -0.082996 -0.115219 0.372681 0.424425 -0.206143 0.436087 -0.698767 -0.639585 -0.159381 0.043977 0.51076
东百集团 -0.826129 -0.204683 -1.01086 -0.309012 0.066286 0.274542 0.127376 0.141457 0.342298 -0.071238 -0.435742 0.258734 0.072906 0.549081 0.052542 -0.178844 0.252676 -0.341736 0.394673 -0.766087 0.122593 0.086461 -0.287117 -1.018379 0.159131 0.619401 -0.31353 -0.166195 0.153899 -0.840393 -0.004269 -0.1176 -0.034381 0.107497 -0.831335 0.279461 -0.488853 -0.344163 0.304711 -0.399158 -0.059005 0.033444 0.494129 -0.057963 0.157244 -0.299826 -0.246622 -0.069075 0.643235 0.484673
三诺生物 -0.82311 -0.272467 -0.780027 -0.225973 -0.139657 -0.138011 0.103636 -0.249298 0.041124 -0.222191 -0.394538 -0.002679 0.171385 -0.098564 0.234233 0.007295 0.390274 -0.059682 0.287205 -0.716594 0.17548 0.473649 0.161236 -0.908107 -0.314561 0.848418 0.080405 -0.406145 -0.039686 -0.450905 -0.00568 -0.219538 0.075796 0.012908 -0.553377 -0.313959 -0.150921 0.063131 -0.034498 -0.541438 0.102835 0.098384 0.392274 -0.264662 0.332733 -0.04509 -0.413979 -0.154647 0.438366 0.548454
吉恩镍业 -0.705968 -0.205465 -1.167503 -0.179975 0.260401 -0.30429 -0.043916 0.032771 0.189993 -0.07189 -0.459126 -0.055941 -0.010762 0.119732 0.171367 -0.255615 0.242925 -0.165551 0.353071 -0.613188 0.030265 0.019142 -0.255256 -0.86617 -0.217616 0.559499 -0.460386 -0.428839 0.24883 -0.792945 0.361129 -0.095746 0.160581 0.515969 -0.380927 0.388893 0.070553 -0.051729 -0.065978 -0.363935 0.096683 0.130299 0.656395 -0.224267 0.278257 -0.489834 -0.408425 -0.355359 0.190148 0.505828
欧菲光 -0.604672 -0.201358 -1.174262 -0.173528 -0.051573 -0.025975 0.076095 -0.384519 0.036217 -0.396085 -0.353839 -0.321397 -0.158522 0.334948 0.106298 0.202368 0.386904 -0.186177 0.011715 -0.675676 -0.057947 0.347563 0.009448 -0.744782 -0.134479 0.757791 0.156096 0.005899 -0.174964 -0.349726 -0.176813 -0.116813 -0.182492 0.143106 -0.437663 0.100647 -0.071914 0.002833 -0.18759 -0.129921 0.244077 -0.020388 0.526155 -0.435833 0.592638 -0.153967 -0.366523 -0.032116 0.297347 0.723271
石岘纸业 -0.284045 -0.146162 -0.916545 -0.351195 0.021226 -0.026292 -0.122603 0.401008 -0.057446 0.022266 -0.578401 0.459451 -0.17902 0.155896 -0.164129 0.107756 0.299828 -0.494429 0.34199 -0.438424 -0.224628 0.271103 -0.545342 -0.883622 -0.160956 0.774258 -0.671828 -0.018047 0.003727 -0.571517 0.414239 0.118789 -0.29702 0.13204 -0.468437 0.728178 -0.265061 -0.253686 -0.00908 -0.485088 0.259954 0.234337 0.185877 0.030843 0.364458 -0.203572 -0.094503 -0.271607 0.393887 0.834583
金谷源 -0.462655 -0.203695 -0.638467 -0.506625 0.395567 0.029057 0.090367 0.307731 -0.255239 -0.032303 -0.570028 0.385893 -0.104153 0.064901 -0.331739 -0.180428 0.179626 -0.351041 0.31743 -0.555968 0.098158 0.435095 -0.58392 -1.118254 -0.491237 1.004991 -0.143464 0.027415 0.141007 -0.44103 0.259424 0.069539 0.108683 0.07826 -0.22122 0.724495 -0.485293 -0.303262 0.301294 -0.271106 -0.051371 0.081153 0.416806 -0.057179 0.371403 -0.161998 -0.410441 -0.138784 0.230564 0.632503
皖能电力 -0.864905 -0.226326 -1.30218 -0.141384 0.075988 0.065137 -0.2007 0.397353 -0.012053 -0.084094 -0.427684 0.349107 -0.432027 0.088497 0.126893 0.054161 0.281378 -0.262679 0.234252 -0.465555 0.020577 0.031965 -0.317709 -1.085562 -0.011396 0.655648 -0.292311 -0.425373 0.197915 -0.976366 0.058168 -0.144096 -0.097552 0.155661 -0.393347 0.421077 -0.069802 -0.119171 0.216369 -0.650956 0.279557 0.022019 0.367859 -0.165384 0.2394 -0.436655 -0.638824 -0.43653 0.386456 1.101031
北新路桥 -1.044872 -0.248165 -1.323424 -0.219744 0.23023 -0.058469 0.044631 0.322828 0.173129 -0.180622 -0.493856 0.237908 -0.089192 0.050276 0.238195 0.018675 0.660619 -0.352728 0.19591 -0.608766 0.241986 0.089604 -0.201354 -0.914366 -0.414336 0.600619 -0.220679 -0.134716 0.206865 -1.108826 0.293626 0.066509 0.052384 0.238718 -0.354151 0.412797 0.110248 -0.164924 -0.148459 -0.365318 -0.023557 -0.00763 0.532505 -0.455585 0.061718 -0.108639 -0.77838 -0.571065 0.063818 1.153925
大西洋 -0.039176 -0.355051 -0.032263 0.523465 -0.030469 -0.282105 0.064573 0.105997 0.091885 -0.481428 -0.233962 0.044233 -0.048538 -0.235156 0.261306 -0.216562 0.102548 -0.6789 -0.123058 0.218989 -0.144791 -0.272167 -0.21862 0.230998 -0.24842 -0.864125 -0.098348 -0.33789 0.046256 -0.373394 -0.224324 0.011435 -0.088083 -0.024095 0.069928 0.377011 -0.49434 -0.457252 0.141761 0.134607 -0.289127 0.170773 0.078291 -0.289168 0.043597 0.05156 -0.180857 0.084964 -0.053117 -0.205963
荣安地产 -0.604551 -0.048527 -0.821305 -0.545687 0.401313 0.253738 0.046462 -0.020211 0.498119 -0.115555 -0.263685 0.181022 0.160148 0.089749 0.109039 -0.183378 -0.113866 -0.249687 0.281563 -0.57031 -0.00029 0.434711 -0.491036 -0.959754 0.298333 0.436785 -0.186741 0.053015 0.010987 -0.707394 0.486732 0.082713 -0.109497 0.247511 -0.19914 0.443513 -0.604156 0.222663 0.268874 0.099691 -0.091198 0.047593 0.299317 -0.160473 0.071494 -0.255555 -0.345558 -0.378528 0.298135 0.467885
光环新网 -0.676908 -0.076998 -0.927054 0.033506 -0.038526 -0.343619 0.088099 -0.038417 0.073692 -0.106275 -0.825096 -0.250722 -0.162578 -0.242879 0.151517 -0.046172 0.074656 -0.275692 0.262024 -0.679168 0.486242 0.319542 0.067252 -0.523734 -0.00849 0.628008 0.347631 -0.05262 0.218364 -1.008795 -0.015695 -0.422432 0.013391 -0.101043 -0.34 0.286311 0.135976 -0.206069 0.024834 -0.533112 0.208986 0.091807 0.385877 -0.223822 0.216962 -0.168268 -0.508807 -0.317052 0.474562 0.741929
长青股份 -1.189711 -0.38326 -1.267155 -0.297048 -0.143152 0.068435 -0.287785 0.046377 -0.040301 -0.284282 -0.61383 0.037376 0.146443 0.196504 0.150093 -0.18385 0.679085 -0.081312 0.02837 -0.676932 0.312579 0.252977 -0.137476 -1.108956 -0.534772 0.725768 -0.361573 -0.418521 0.216985 -0.442358 -0.188621 -0.046767 -0.079393 0.045621 -0.965977 -0.141136 -0.317866 -0.174877 -0.210693 -0.5281 0.102402 -0.303849 0.033625 -0.234481 0.282597 -0.460292 -0.710798 -0.157647 0.574218 1.084776
中材节能 -0.764263 0.065995 -0.654653 -0.251473 0.235225 -0.397943 0.078462 -0.086317 0.056223 -0.091923 -0.390832 -0.021474 -0.01754 -0.057693 0.223051 0.003797 -0.009216 0.149918 0.323677 -0.848241 -0.008738 0.419296 0.033673 -0.873098 0.014847 0.964745 -0.201151 -0.388854 0.373627 -0.921221 0.274239 -0.354501 -0.076683 0.002852 -0.162744 0.339663 -0.325509 -0.307368 0.252226 -0.370519 -0.243657 -0.022243 0.852134 -0.280648 0.500564 -0.411041 -0.520051 -0.337329 0.426548 0.43168
中青旅 -0.542602 0.478681 -0.626669 -0.002375 0.024001 -0.012137 -0.298794 0.061024 0.245467 -0.189974 0.030343 0.101308 0.431575 0.013812 0.145183 0.328789 0.354237 -0.24041 0.015966 -0.54242 0.41952 0.348411 -0.025758 -0.434637 -0.249954 -0.137969 0.674382 0.156216 0.124914 -0.945466 -0.07585 -0.38138 -0.063792 -0.330103 -0.661231 0.138808 -0.502999 -0.540347 0.467747 -0.147283 -0.025236 0.046863 0.258797 -0.374864 0.077493 -0.118917 -0.129422 -0.34265 0.398814 0.282817
云海金属 -0.959686 -0.287788 -1.434119 -0.176175 0.11037 -0.070646 -0.431152 0.308444 0.1066 -0.063004 -0.5645 -0.16815 -0.062564 0.12819 0.143785 0.370006 0.485146 -0.356745 0.184931 -0.772525 0.204849 0.178606 -0.329886 -0.908907 -0.288776 1.103229 -0.295546 -0.321404 0.258802 -0.738899 0.198879 0.113382 -0.028616 0.427947 -0.501994 0.401213 -0.257668 -0.126322 -0.15191 -0.532464 0.287563 0.307114 0.691621 -0.283082 0.237447 -0.684444 -0.40945 -0.04455 0.318012 1.075523
漫步者 -0.726765 -0.526986 -0.378194 0.499775 0.086541 -0.252377 0.285948 -0.139119 0.087588 -0.201867 0.328235 -0.59936 0.320233 0.019452 -0.314776 0.586243 0.026844 -0.059591 -0.220518 -0.472192 0.428475 0.340276 -0.213991 -0.625679 -0.121249 0.363313 0.10615 0.527269 0.05296 -0.067425 0.139096 -0.09898 -0.682148 0.290938 -0.172217 0.303852 0.433329 -0.016571 0.295045 -0.402588 -0.032039 0.142233 0.116358 -0.133295 0.304919 -0.115068 0.152497 -0.223999 0.271969 0.453963
物产中大 -0.82142 -0.231544 -0.909007 -0.19575 0.224086 0.1265 0.018778 0.062723 0.135707 -0.163324 -0.383388 0.160694 0.172172 0.128642 0.114558 -0.030676 0.090458 -0.455398 0.481401 -0.767994 0.25666 0.10336 -0.216416 -0.980066 -0.14588 0.560114 0.139887 -0.350235 -0.053406 -0.854683 0.458701 -0.44151 0.295016 -0.106689 -0.528138 0.299492 -0.395873 -0.085727 0.253933 -0.456495 0.386504 0.308096 0.280391 -0.190481 0.376528 0.130223 -0.292102 -0.231131 0.609198 0.644451
中源协和 -0.493705 -0.486792 -0.74889 0.153044 0.141575 -0.357193 0.131783 -0.211882 -0.013473 -0.233364 -0.745087 0.117334 0.136063 -0.012602 0.266546 -0.010028 0.059421 -0.185111 0.722154 -0.475533 0.229388 0.593381 -0.072156 -1.012505 -0.165901 0.87472 0.041689 -0.397668 0.180868 -0.250659 0.426976 -0.295381 0.113488 0.068214 -0.239856 -0.054627 -0.146757 0.063396 -0.004925 -0.381199 -0.248196 0.215573 0.214481 -0.519508 0.280229 -0.197279 -0.368164 -0.236974 0.408614 0.377712
雷鸣科化 -0.634169 -0.25834 -1.128191 -0.170457 0.046741 0.132628 -0.043226 0.097364 -0.212771 -0.079057 -0.53122 0.396356 -0.093629 0.063253 -0.16003 -0.221903 0.488512 -0.330911 0.135963 -0.463925 0.083396 0.206272 -0.390781 -0.99102 -0.213991 1.006575 -0.389853 -0.161446 0.220498 -0.72545 0.378673 -0.139065 -0.124901 0.219815 -0.640243 0.136463 -0.506075 -0.171314 0.157177 -0.457771 0.079573 0.080848 0.508053 -0.230692 0.422466 -0.459924 -0.538874 -0.174965 0.19108 1.20058
广东甘化 -0.643646 -0.394409 -1.022439 -0.30186 -0.109445 -0.125694 -0.104498 0.393939 -0.060242 -0.112651 -0.768265 0.00678 -0.060768 0.049021 -0.033841 -0.139339 0.519619 -0.387333 0.265056 -0.429143 0.059887 0.294876 -0.471321 -0.866869 -0.117385 0.677331 -0.549905 -0.009582 0.118027 -0.643561 0.247135 0.025328 -0.165923 0.151824 -0.513289 0.206427 -0.066136 -0.147434 0.206541 -0.541242 0.086569 -0.014904 0.243373 0.037499 0.031996 -0.462669 -0.36676 -0.175478 0.254221 0.87761
劲嘉股份 -0.551163 0.028144 -0.962225 -0.270649 0.153034 0.18373 -0.007558 0.14396 -0.002822 -0.01886 -0.373666 -0.073973 0.26694 0.25018 0.138852 -0.007741 0.268041 -0.473051 0.223519 -0.435702 0.113595 0.368926 -0.108797 -1.051079 -0.240565 1.136471 -0.140811 -0.270303 0.015008 -0.698372 0.230694 -0.071013 -0.371652 0.260629 -0.787512 0.480937 -0.246378 -0.193519 0.137902 -0.306218 0.085499 0.207023 0.499979 -0.479977 0.342888 -0.424206 -0.185501 -0.349808 0.353992 0.652938
中煤能源 -0.656155 -0.067957 -1.222523 0.139543 0.32111 0.102295 -0.124061 0.441762 0.208305 -0.178496 -0.341823 0.0686 -0.132491 0.20628 0.05734 -0.173276 0.143242 -0.05278 0.279224 -0.63967 -0.144141 -0.042687 -0.093689 -1.121625 -0.103418 0.401778 -0.23598 -0.393624 0.223553 -0.929303 0.242326 -0.198301 0.236516 0.024236 -0.527779 0.398355 -0.334457 -0.287748 -0.021936 -0.432211 0.141898 0.255802 0.560091 -0.004269 0.625244 -0.650466 -0.62343 -0.348255 0.173963 0.497226
久联发展 -0.942305 -0.0848 -1.215784 -0.080637 0.12073 0.163171 0.103433 0.125834 0.006371 0.083403 -0.704749 0.05646 -0.120802 0.010195 0.11507 -0.210207 0.587348 -0.263782 0.0351 -0.62223 0.294349 0.341739 -0.166861 -1.056524 -0.416023 0.827861 -0.172498 -0.173463 0.146766 -0.726205 0.075643 -0.263058 -0.018456 0.197107 -0.842602 0.285832 -0.262167 -0.05082 -0.075544 -0.335128 0.071626 -0.003557 0.431871 -0.352992 0.253944 -0.51375 -0.426732 -0.284993 0.472172 1.042404
梅花生物 -0.437547 -0.173151 -0.652727 -0.337044 -0.098636 -0.199894 -0.381446 0.228424 -0.258847 -0.399568 -0.55966 -0.079566 -0.144419 0.007143 -0.097552 -0.250101 0.192557 -0.15072 0.247077 -0.349595 -0.202921 0.231224 -0.249543 -0.834494 -0.252376 0.714283 -0.371444 -0.172399 0.254724 -0.797852 0.307804 -0.238686 0.063477 0.220007 -0.312265 0.184279 -0.589088 -0.017592 0.052557 -0.165847 -0.251772 0.204556 0.22933 -0.086387 0.321981 -0.386377 -0.406812 -0.107683 0.361325 0.709087
长青集团 -0.902334 -0.276544 -1.130525 -0.11827 -0.061515 0.067679 0.088725 0.182206 -0.127192 0.075487 -0.537676 0.352998 -0.163493 -0.008563 0.169411 -0.108121 0.472374 -0.105493 0.222248 -0.5289 0.36873 0.282714 -0.276277 -0.792148 -0.222231 0.986879 -0.271342 -0.146974 0.091017 -0.632147 0.208138 -0.216578 0.163571 0.233236 -0.526681 0.261363 -0.065557 -0.242515 -0.245239 -0.22199 0.293082 0.038195 0.350826 -0.219866 0.350585 -0.343939 -0.756472 -0.330046 0.42805 1.041398
海普瑞 -0.254443 -0.116203 -0.577959 0.002394 0.412289 -0.165521 0.159453 -0.057138 0.225522 -0.237778 -0.182426 0.12323 -0.343418 0.196678 0.220776 -0.120591 0.058937 -0.092712 0.208462 -0.478494 -0.027686 0.3343 0.055192 -0.694105 -0.162537 0.635252 -0.052918 -0.158335 -0.080924 -0.546395 -0.122118 -0.061475 0.324408 0.154709 -0.135705 0.256595 -0.52617 0.177229 -0.071115 -0.097973 -0.284064 0.236486 0.556127 -0.066134 0.259486 -0.219532 -0.351516 -0.441749 0.318357 -0.002929
凯乐科技 -0.62644 -0.235913 -0.82394 -0.357147 -0.23309 0.012508 0.000337 -0.176157 0.010167 -0.177331 -0.351002 -0.049132 -0.038022 0.010482 0.112669 0.059985 -0.005232 -0.172943 0.174303 -0.546202 0.262793 0.431644 -0.172056 -0.991557 -0.143183 0.716642 0.056287 -0.22224 0.190359 -0.802824 0.38961 -0.171908 0.173984 0.105811 -0.226712 0.282151 -0.262444 -0.160829 0.048489 -0.069369 0.100045 0.307535 0.746195 -0.143406 0.374843 -0.312394 -0.3084 -0.176539 0.457522 0.581613
嘉欣丝绸 -0.835176 -0.239913 -0.974045 -0.328797 -0.005005 0.208202 0.106064 0.227541 0.192075 0.050161 -0.722026 0.072584 0.122988 -0.213784 0.09763 -0.040688 0.532488 -0.241121 0.235327 -0.444831 0.485048 -0.009607 -0.536499 -0.862624 -0.337956 0.838737 -0.12582 -0.021506 0.126457 -0.687959 0.049761 -0.254444 0.101406 0.342531 -0.561448 0.284633 -0.289093 -0.369336 -0.219556 -0.328586 0.245719 0.149214 0.414373 -0.312308 0.047022 -0.075235 -0.521647 -0.209132 0.623746 0.84429
厦门空港 -0.950954 -0.06874 -1.078483 0.025101 0.022698 0.217946 -0.206463 0.175557 -0.164276 0.298558 -0.381157 0.496944 0.055604 -0.040373 0.119257 0.391457 0.443024 -0.344763 -0.026642 -0.298737 0.318978 -0.082499 -0.352049 -1.166772 -0.455471 0.353406 -0.01467 -0.072041 0.036833 -0.927686 0.27474 -0.366428 0.153833 0.011063 -0.619252 0.434153 -0.233035 -0.176953 0.227237 -0.222468 0.348756 0.075373 0.369333 -0.205863 0.116928 -0.101742 -0.75396 -0.644666 0.212006 0.792313
ST宜纸 -0.649036 -0.226135 -0.795146 -0.258699 0.245948 -0.108154 -0.000541 0.288705 -0.11786 -0.189811 -0.25987 0.326541 -0.071671 0.028246 -0.241637 -0.218503 0.057145 -0.175468 0.270877 -0.211357 0.033629 0.513121 -0.328682 -1.075889 0.004144 0.831492 -0.358679 -0.014963 0.165018 -0.946051 -0.13294 -0.264081 -0.068772 0.520943 -0.203236 0.169267 -0.252096 -0.274981 0.47057 -0.642651 -0.047476 0.321576 0.359595 -0.106281 -0.011305 -0.633711 -0.493405 -0.281564 0.339892 0.823079
惠而浦 -0.111943 0.061868 -0.581636 0.165293 -0.329762 -0.22005 -0.077148 -0.278822 0.165671 -0.817525 -0.48929 -0.416112 -0.192297 -0.00456 -0.428241 0.135735 -0.216297 -0.241416 -0.114159 -0.254226 0.058161 0.166586 0.034764 -0.360669 0.062099 0.415177 0.261581 0.008254 0.105832 -0.071932 0.078466 -0.320585 0.241037 0.213748 -0.32302 0.407323 -0.492567 -0.313755 0.184991 0.144414 -0.459689 -0.038002 0.517246 -0.053973 0.296119 -0.428373 -0.101308 0.002653 0.698379 0.128357
信立泰 -0.837966 -0.158176 -1.094733 -0.207997 0.196697 0.208508 0.124922 -0.193204 -0.250721 -0.251878 -0.527408 0.345104 0.224991 -0.098322 0.180379 -0.003465 0.30016 -0.131911 0.133729 -0.352989 0.046491 0.505881 -0.059585 -1.115587 -0.316806 1.113577 0.20438 -0.006776 0.114311 -0.48594 0.034647 -0.31451 0.169203 0.293499 -0.698437 0.134893 -0.509263 0.062795 0.073457 -0.547781 -0.004012 -0.015045 0.180866 -0.191051 0.344016 -0.141162 -0.572525 -0.106032 0.452701 0.701132
标准股份 -0.468519 -0.213707 -0.840127 -0.164431 0.06986 0.427452 0.180923 0.220072 -0.039665 0.300551 -0.495656 0.379179 0.086168 0.076114 -0.059215 -0.094367 0.549873 -0.26628 0.074393 -0.480187 -0.046633 0.353704 -0.364113 -0.981603 -0.423676 0.80225 -0.298253 0.066092 0.009338 -0.699718 0.016108 -0.022141 -0.059669 0.163334 -0.557341 0.429394 0.010182 -0.306076 -0.07264 -0.875075 0.434538 0.228913 0.145876 -0.178915 0.128739 -0.374185 -0.239868 -0.289837 0.232626 0.759512
白云机场 -0.392566 0.00878 -0.213465 -0.312242 0.178556 -0.198532 -0.281489 -0.14976 -0.095313 0.125307 0.471262 -0.090472 0.334086 -0.348428 0.131861 0.24397 0.226137 -0.52749 0.056037 0.049229 0.482227 0.279003 -0.301224 -0.402967 -0.058435 -0.796866 0.153317 -0.207412 0.213135 -0.782933 0.22214 -0.515031 -0.027155 -0.30869 -0.056989 0.041492 -0.109055 -0.664371 0.60375 0.278534 -0.080153 0.038186 0.20158 0.131691 0.540652 -0.446377 -0.200409 -0.203196 0.20185 0.098024
同力水泥 -0.791688 -0.161782 -1.161459 -0.094134 0.025036 0.385966 0.074698 0.075624 0.116586 0.125907 -0.31897 0.261595 -0.105473 -0.039742 0.397667 -0.063955 0.521193 -0.094409 0.239127 -0.358187 0.203613 0.039394 -0.514989 -0.999512 -0.109972 0.78369 -0.284674 -0.068884 0.090968 -0.956548 0.133419 -0.110182 -0.05145 0.148909 -0.659752 0.254349 -0.207982 -0.13073 0.062171 -0.254039 0.153275 0.097506 0.341232 -0.350237 0.13348 -0.28907 -1.005025 -0.451904 0.465817 0.873727
丰林集团 -0.710429 -0.245054 -0.894119 -0.030353 -0.041225 -0.085697 0.050876 0.24146 -0.010839 0.367931 -0.614109 0.322227 -0.243756 0.059592 0.160345 -0.028764 0.265259 -0.050521 0.101354 -0.518996 0.048063 0.206997 -0.218447 -0.862944 -0.246239 0.899313 -0.05481 -0.095232 -0.099941 -0.767139 0.280475 -0.098136 0.01623 0.004433 -0.671226 0.247995 -0.158417 -0.014216 -0.068402 0.012222 0.094245 0.353118 0.278191 -0.440782 0.274411 -0.594251 -0.53111 -0.455377 0.185504 0.801362
烯碳新材 -0.715955 -0.05494 -1.051943 0.084109 -0.102463 -0.61967 -0.379241 -0.305379 0.132462 -0.392166 -0.692213 -0.106414 0.059832 -0.009515 0.359628 -0.143728 0.393343 0.062023 0.199624 -0.57735 0.21682 0.206096 0.085323 -0.827585 -0.316197 0.792908 -0.17545 -0.265324 0.035864 -0.76151 0.399825 -0.001555 0.519354 0.295728 -0.196249 0.329239 -0.212124 -0.041649 -0.518769 -0.197243 0.122623 -0.263125 0.319714 -0.547133 0.466825 -0.314518 -0.817865 -0.115289 0.347776 0.55022
广宇发展 -0.651614 -0.225722 -1.030915 -0.218826 0.256302 0.320984 -0.041293 -0.087258 0.128621 -0.079699 -0.38319 0.157129 -0.090135 0.128168 0.027921 -0.0205 -0.066785 -0.276592 0.217584 -0.565235 0.122775 0.421429 -0.340887 -1.095437 0.180695 0.538372 -0.240319 0.017344 -0.021735 -0.884466 0.400257 -0.375872 -0.120681 0.329178 -0.541561 0.481315 -0.538169 -0.04619 0.263389 -0.271388 0.046095 0.182909 0.341195 -0.098704 -0.00886 -0.330979 -0.587157 -0.517607 0.473849 0.465571
中化国际 -0.317399 -0.163733 -1.072942 0.02057 0.114521 -0.093363 -0.293398 0.317237 0.206677 -0.363132 -0.529497 -0.243175 -0.121524 0.338381 -0.187589 0.098993 -0.053815 -0.549241 0.366171 -0.24989 -0.435972 0.272014 -0.151768 -1.099022 0.15385 0.568474 -0.018939 -0.090269 0.072078 -0.689229 0.636399 -0.272565 0.214809 0.313341 -0.458712 0.353211 -0.612775 -0.246408 0.048106 -0.230866 -0.113878 0.104806 0.362341 -0.207345 0.4278 -0.439909 -0.44128 -0.003732 0.347948 0.523642
青山纸业 -0.761734 -0.238826 -0.889584 0.089882 -0.051524 0.12008 -0.00265 0.209081 0.038916 0.271414 -0.418558 0.235647 -0.188664 0.169024 0.151438 -0.258487 0.292053 -0.318009 -0.046238 -0.621017 0.255251 0.030837 -0.256043 -1.145116 -0.182255 0.851075 -0.305522 -0.004527 0.224487 -0.859625 0.332327 -0.206158 0.078152 0.085716 -0.374951 0.408634 -0.001443 0.017354 -0.219627 -0.758349 0.17373 0.037114 0.571364 -0.263794 0.277086 -0.586017 -0.402304 -0.412925 0.180031 0.427587
浔兴股份 -1.197702 -0.109379 -1.016055 -0.482635 -0.165779 0.257436 0.153029 0.165484 -0.074248 0.243127 -0.584323 0.285393 0.043243 -0.018422 0.142783 0.108307 0.499943 -0.285564 0.201784 -0.311072 0.481866 0.134067 -0.354436 -0.981607 -0.468275 0.942426 -0.405471 -0.110507 0.159078 -0.659285 0.060299 -0.209434 -0.036063 0.132034 -0.531847 0.299302 -0.475652 -0.255823 -0.08698 -0.310537 0.191319 0.180538 0.329509 -0.206351 -0.031505 -0.138651 -0.840679 -0.154869 0.598901 1.093699
科大讯飞 -0.607433 -0.114363 -0.913651 0.099719 -0.304497 -0.3438 -0.139338 -0.360758 -0.006862 -0.108276 -0.498835 -0.405346 -0.110779 -0.005111 0.187096 0.194386 0.046762 -0.131423 0.290501 -0.580613 0.446593 0.355905 0.316219 -0.272471 -0.219085 0.356982 0.357175 0.009623 -0.357882 -0.513524 0.023644 -0.445584 0.121069 -0.045766 -0.393355 0.311648 0.10638 -0.188877 0.149033 -0.309256 0.314214 0.300066 0.413259 -0.164884 0.099683 0.266398 -0.289767 -0.412951 0.282481 0.535659
泛海控股 -0.096148 0.2545 -0.937666 0.394633 -0.16843 -0.115294 -0.055776 0.33038 0.264045 -0.603738 -0.360664 -0.125717 -0.310679 -0.046147 -0.083074 0.014564 -0.568083 -0.800125 0.67284 -0.217681 -0.097913 0.377947 -0.087171 -0.949225 0.373945 0.437698 0.189405 0.177592 -0.044073 -0.729047 0.561522 -0.351506 0.239655 0.215661 -0.39677 0.59505 -0.794573 -0.090169 0.416071 -0.127367 -0.22599 0.166435 0.472616 -0.374573 0.191529 -0.180964 -0.214288 -0.158311 0.723212 0.004373
三环集团 -0.388916 0.012077 -0.459542 -0.50141 0.380853 0.103412 -0.039433 0.471533 -0.083916 -0.367078 -0.246191 0.194852 -0.343828 0.244804 0.101131 0.108096 -0.221252 -0.244171 0.164543 -0.19629 -0.28602 0.4011 -0.311845 -0.804639 0.027869 0.739596 -0.308268 -0.136189 -0.154055 -0.342461 0.327408 -0.007329 -0.164257 0.139979 -0.185975 0.348813 -0.469916 -0.353781 0.559103 -0.169219 -0.330879 0.156334 0.37788 0.051766 0.366103 -0.323692 -0.207062 -0.284275 0.481425 0.209383
东方证券 -0.394669 -0.252937 -0.745223 -0.055701 0.259726 0.737146 0.16933 0.409037 -0.140102 -0.281088 0.546526 0.189717 0.412199 0.000762 0.931616 0.761163 -0.881167 -0.322558 0.188014 -0.60778 -0.102606 0.194425 0.483618 -0.801337 0.484374 -0.172001 0.345084 -0.536264 0.007932 -0.921494 0.99341 -0.749433 0.460885 -0.354005 -1.090605 -0.039904 -0.649776 0.009499 -0.000129 -0.72594 0.151457 -0.392666 0.619995 -0.835537 0.386072 0.702374 -0.441824 0.00864 0.648784 0.445025
深信泰丰 -0.781154 -0.299002 -1.024073 -0.259718 -0.056509 0.26581 0.200134 0.199951 0.031067 -0.0619 -0.190793 0.368277 0.069426 0.182592 0.05357 -0.348601 0.339965 -0.162928 0.086499 -0.466016 0.212921 0.350544 -0.242988 -1.166653 -0.189713 0.945205 -0.452641 0.000949 0.360413 -0.900202 0.108988 0.231968 -0.106951 0.223137 -0.66547 0.629183 -0.137342 -0.152061 0.05076 -0.425745 0.026318 0.1031 0.506793 -0.420101 0.328472 -0.250852 -0.595965 -0.166423 0.390454 0.693039
安诺其 -0.823978 -0.107958 -1.040551 -0.337984 0.173533 0.038391 -0.16495 0.106581 -0.076721 0.058453 -0.235225 0.012762 0.003991 0.236082 0.060001 -0.39242 0.330572 -0.219878 0.206435 -0.495933 0.160187 0.38253 -0.153375 -0.74591 -0.396692 0.900192 -0.243164 -0.193532 0.235948 -0.834749 0.262866 -0.090607 0.096449 0.249561 -0.690072 0.17777 -0.145727 0.046719 -0.211929 -0.214511 0.02776 -0.105637 0.435899 -0.264396 0.354926 -0.536438 -0.510785 -0.310905 0.336106 0.602256
中信证券 -0.279297 -0.273756 -0.684816 0.081335 0.329617 0.767848 -0.000275 0.45357 0.167379 -0.315112 0.330495 -0.151873 0.257743 0.1548 0.755299 0.495954 -0.516609 0.102332 0.390122 -0.593047 0.096725 0.042399 0.360271 -0.889428 0.377476 0.1349 0.218955 -0.39436 0.069682 -0.718486 0.568355 -0.269261 0.549541 -0.095405 -0.8047 0.075152 -0.699685 -0.254214 0.163487 -0.512759 -0.014484 -0.598938 0.565937 -0.872991 0.191945 0.234015 -0.353487 -0.219054 0.737577 0.481014
重庆港九 -1.170847 -0.118148 -1.192717 -0.11067 0.048702 0.065498 -0.360178 0.219418 0.090957 0.151038 -0.861121 0.439384 -0.143631 0.096442 -0.053573 -0.3836 0.59206 -0.364061 0.088858 -0.674642 0.369053 -0.211589 -0.4213 -1.231587 -0.413396 0.399697 -0.294119 -0.135371 0.059714 -0.952703 0.2839 -0.135025 -0.137314 -0.028145 -0.462797 0.437631 -0.023054 -0.321872 0.369847 -0.387067 0.230867 0.165892 0.50637 -0.293399 0.055633 -0.402296 -0.69614 -0.330058 0.290567 0.830006
柯利达 0.035087 -0.037898 -0.244886 0.140307 -0.073392 0.13939 0.147282 0.373617 -0.106655 0.180871 -0.028733 0.098483 -0.176926 -0.409971 0.135533 0.077893 -0.244661 -0.494049 -0.317894 0.002714 0.286889 -0.228509 -0.05673 -0.018643 -0.142585 0.151128 -0.098589 0.229005 -0.040071 -0.14375 0.217023 -0.057481 -0.183931 0.184954 -0.444251 0.251459 -0.175785 -0.459478 -0.183627 0.087269 -0.062745 -0.337005 -0.065846 0.209698 0.272416 -0.000555 -0.241648 0.035406 0.124616 0.192852
福晶科技 -0.841611 -0.507738 -1.042832 0.178119 -0.010727 -0.389367 0.08635 0.175472 -0.230042 -0.086974 -0.75651 0.293439 -0.235716 -0.020043 0.121655 0.117657 0.440767 -0.426248 0.289274 -0.645606 0.041188 0.192672 -0.057661 -0.958934 -0.482085 0.85641 -0.340198 -0.116913 0.241118 -0.663951 0.297115 -0.331972 0.040357 0.254739 -0.435249 0.108121 -0.062612 0.051885 -0.212825 -0.147701 0.204017 -0.020354 0.521293 -0.18942 0.315451 -0.456252 -0.624463 -0.121242 0.130717 0.838953
靖远煤电 -0.84031 -0.207999 -1.340942 0.110886 0.211454 -0.064928 -0.144929 0.254424 0.069157 0.116002 -0.510967 0.421097 -0.338284 0.2532 -0.049157 -0.272138 0.452779 0.113789 0.049389 -0.917262 0.202694 -0.039913 -0.423008 -1.0887 -0.091533 0.817344 -0.562852 -0.316304 0.42697 -1.009727 0.428907 -0.031485 0.099565 0.1837 -0.545437 0.26416 0.048878 0.074586 -0.106284 -0.583374 0.356583 0.257949 0.431982 0.053007 0.308869 -0.337159 -0.943161 -0.297735 0.069676 0.954061
刚泰控股 -0.411382 -0.243326 -1.059454 -0.226124 0.088202 -0.002902 0.04645 0.16187 0.13122 0.07293 -0.544419 0.114375 0.057185 0.340583 -0.145632 -0.076562 0.003246 -0.300729 0.228655 -0.460816 0.133245 0.351988 -0.271816 -1.119726 -0.150145 0.970853 -0.136204 -0.171821 0.073059 -0.866426 0.416449 -0.059996 -0.04032 0.424885 -0.397078 0.120685 -0.36762 -0.18927 0.278485 -0.314271 0.184972 0.22464 0.533829 -0.438406 0.133597 -0.33257 -0.61838 -0.470545 0.499718 0.607237
中房地产 -0.538272 0.385118 -0.69325 -0.086665 0.150029 -0.170065 -0.056457 -0.095584 0.145918 -0.533487 -0.101559 -0.101529 -0.400871 0.208255 0.1191 0.014225 -0.125777 0.188017 0.364787 -0.202113 0.224586 0.121486 -0.05114 -0.782029 0.511821 0.495088 -0.552179 -0.001978 0.025709 -0.369146 -0.220315 -0.3467 0.124911 -0.035349 -0.144925 -0.089219 -0.350939 0.132118 0.403783 0.123539 0.037377 0.062661 0.281807 0.030264 0.193597 -0.047663 -0.698027 -0.337267 0.684064 -0.1198
黑芝麻 -0.03107 -0.047432 -1.074201 -0.672889 0.06337 -0.005477 -0.353073 -0.219979 -0.076727 0.093813 -0.677831 -0.479077 0.20503 -0.160551 0.321013 0.425734 -0.137438 0.270577 -0.391676 -0.091149 0.035992 0.445076 0.007166 0.994694 -0.812447 -0.454455 -0.818217 0.255776 0.558735 -0.134284 0.26106 -0.138912 0.650738 0.129708 0.005057 0.215335 -0.37953 1.048378 0.36533 -0.192615 0.100662 0.338126 0.040034 -0.0736 -0.1467 0.045582 0.517125 0.444139 -0.748686 -0.486629
金山股份 -0.810012 -0.264765 -1.204886 0.071856 -0.16752 -0.160277 -0.249886 0.084323 0.064148 -0.188648 -0.520593 -0.226619 -0.518625 0.022337 0.141172 -0.210478 0.125404 -0.247629 0.49652 -0.772595 0.272832 0.118444 -0.105079 -0.91835 0.154388 0.783624 -0.000118 -0.420631 0.078661 -1.197889 0.342022 0.072552 -0.235516 0.21644 -0.499871 0.435305 0.15529 0.004985 0.189807 -0.487538 0.346949 0.196487 0.298934 -0.423731 -0.054236 -0.602091 -0.423583 -0.358729 0.164299 0.988497
东软载波 -0.905569 -0.237555 -1.112677 -0.216376 -0.06878 -0.165209 -0.074547 -0.082975 0.072519 -0.021179 -0.562779 -0.204681 0.017821 -0.003705 0.049968 -0.003065 0.028253 -0.165683 0.283938 -0.694705 0.297901 0.295846 0.095393 -0.842988 -0.34434 0.62314 0.0647 -0.374276 0.037189 -0.803801 0.107936 -0.182926 0.053648 0.025394 -0.543554 0.116688 0.142202 -0.148854 -0.258366 -0.252932 0.301942 -0.016433 0.429823 -0.343102 0.323314 -0.090126 -0.388416 -0.158918 0.226907 1.061615
科力远 -0.365572 -0.080842 -1.009077 -0.125904 0.053751 -0.382513 -0.173879 -0.154333 0.219599 -0.107689 -0.410852 -0.413167 -0.231613 0.210457 -0.065862 0.079128 0.238951 -0.338262 0.566654 -0.455552 -0.368015 0.323203 -0.319172 -0.883913 -0.244125 0.552891 -0.300534 -0.237767 0.110761 -0.656647 0.46166 -0.080636 0.267879 0.349202 -0.273772 0.321076 -0.425875 -0.045363 0.105434 -0.139941 -0.030417 0.163769 0.276873 -0.137022 0.503941 -0.445089 -0.463835 -0.066334 0.263876 0.709434
天齐锂业 -0.879865 -0.252855 -1.169606 0.025069 0.258873 -0.251918 -0.14153 -0.042298 0.112458 -0.42293 -0.615006 0.092942 -0.104857 0.074108 0.178892 0.085387 0.455206 -0.310292 0.303181 -0.512606 -0.022871 0.216746 -0.149661 -0.939673 -0.351718 0.728745 -0.256835 -0.188388 0.094261 -0.602797 0.21182 -0.125965 0.275426 0.196225 -0.49772 0.350487 -0.390492 -0.057365 -0.044575 -0.47425 -0.001531 0.356316 0.619578 -0.213765 0.345099 -0.366683 -0.395074 -0.094996 0.421908 0.956359
恒立实业 -0.298566 -0.251129 -0.514405 -0.507407 0.250753 0.168181 0.039917 0.228301 -0.116406 0.014879 -0.183632 0.331052 -0.058538 0.002021 -0.190081 -0.424348 0.161318 -0.490425 0.52363 -0.587521 0.202151 0.560602 -0.561275 -0.902206 -0.117802 0.898799 -0.254651 -0.307763 -0.096116 -0.242938 0.301055 -0.140051 -0.120413 0.317097 -0.239685 0.606368 -0.319977 -0.362622 0.266234 -0.151567 -0.133749 0.145406 0.61002 -0.189637 0.259274 -0.281936 -0.238221 -0.227114 -0.184534 0.425997
山煤国际 -0.76072 -0.2071 -1.286224 -0.332277 0.471133 0.327723 -0.006823 0.503849 0.326244 -0.146609 -0.268362 0.199296 0.001005 0.409492 0.218202 -0.122364 0.241749 -0.11067 0.306868 -0.837402 -0.122562 -0.256808 -0.236983 -1.055322 -0.129512 0.443809 -0.258849 -0.263215 0.198224 -1.043796 0.414097 -0.167808 0.092652 0.139909 -0.974253 0.509369 0.105254 0.025644 -0.038935 -0.296341 0.290507 0.483054 0.717644 -0.180713 0.716367 -0.204403 -0.514882 -0.222215 0.076915 0.843055
聚光科技 -1.097756 -0.276211 -1.332772 -0.145205 -0.181051 -0.316456 0.095847 0.109618 0.093891 -0.036051 -0.448879 -0.118547 -0.092278 -0.080354 0.21011 0.003719 0.509996 -0.23717 0.462367 -0.667246 0.217932 0.28284 0.02789 -0.777646 -0.520162 0.840239 0.160221 -0.277672 0.076647 -0.680133 0.013832 -0.573845 0.053034 -0.207897 -0.821188 0.07153 -0.235302 0.04635 -0.281457 -0.309411 0.167398 -0.347904 0.62987 -0.13943 0.052083 -0.428391 -0.722134 -0.496208 0.403828 0.795866
迪马股份 -0.601105 -0.007315 -0.917835 -0.384708 0.054872 0.051074 -0.064094 -0.042908 0.182204 -0.053488 -0.502314 -0.019331 -0.212785 0.113873 -0.149808 -0.275385 0.097719 -0.25704 0.250712 -0.612992 0.198251 0.40687 -0.43756 -1.162058 0.015186 0.575907 -0.317315 0.019857 0.217214 -0.595082 0.32463 -0.174546 -0.15525 0.236727 -0.288047 0.451832 -0.433529 -0.040997 0.545033 -0.221788 -0.404961 0.073815 0.476487 -0.037663 -0.033308 -0.328873 -0.556835 -0.547036 0.579653 0.534169
中国嘉陵 -0.791835 -0.373117 -1.251734 -0.049119 0.11125 0.024929 0.103056 0.012771 0.229988 0.231065 -0.437937 0.172428 -0.007374 -0.069342 -0.06741 -0.300114 0.315188 -0.473264 0.213954 -0.523075 0.161816 0.200147 -0.46759 -1.282151 -0.078946 0.922338 -0.444943 -0.161947 0.038655 -0.847909 0.344878 0.007657 0.114639 0.492364 -0.511656 0.376078 -0.041712 -0.038506 0.119332 -0.436616 0.087365 0.149621 0.392394 -0.233324 0.055991 -0.491085 -0.436613 -0.210445 0.466625 0.993569
达刚路机 -0.907888 -0.220914 -1.10662 -0.043947 0.060435 0.12005 0.307802 0.138053 0.035922 0.233532 -0.693417 0.258848 -0.030409 0.038336 0.161013 -0.156369 0.479295 -0.372325 0.240032 -0.473153 0.233457 -0.06497 -0.330561 -1.066132 -0.344915 0.571721 -0.440625 -0.102605 0.146677 -0.915947 0.401538 -0.228599 0.139076 0.154329 -0.646776 0.267772 -0.097003 -0.01494 0.140097 -0.317949 0.248969 0.035261 0.701367 -0.229501 0.035351 -0.097312 -0.786477 -0.389284 0.254715 0.872009
申华控股 -0.579541 0.046493 -1.00597 -0.217281 -0.167634 0.069593 -0.147518 0.068596 0.102626 -0.183206 -0.326818 -0.069544 0.076717 0.029872 -0.128842 -0.020797 -0.04262 -0.519225 0.172694 -0.402172 0.070054 0.181417 -0.391106 -1.08753 -0.16834 0.760701 -0.110567 0.002253 0.049698 -0.872288 0.427272 -0.086706 0.269273 0.236639 -0.640824 0.365613 -0.376495 -0.323877 0.212405 -0.674211 -0.037831 0.202602 0.138581 0.047808 0.353878 -0.366655 -0.632002 -0.279322 0.475209 0.633808
亚通股份 -0.952145 -0.121095 -1.383816 -0.091455 0.214766 0.459846 -0.060923 0.183554 0.103133 0.026748 -0.622513 0.621133 -0.046047 -0.037284 0.258239 -0.227683 0.580851 -0.24484 -0.056855 -0.608613 0.447401 -0.036861 -0.7389 -1.156363 -0.425306 0.819396 -0.389737 0.237742 0.07868 -1.044388 0.009295 -0.090191 0.072125 0.056862 -0.611415 0.356765 -0.348767 -0.146837 0.101548 -0.566094 0.299302 0.128035 0.430133 -0.105443 -0.378742 -0.129695 -0.908821 -0.421393 0.120685 0.925094
龙生股份 -0.844337 -0.172485 -0.820462 -0.402098 -0.253922 0.269044 0.261734 0.289229 -0.053727 0.060277 -0.341546 0.220529 0.024923 -0.33737 0.066363 0.063567 0.238571 -0.35476 0.320732 -0.490669 0.059248 0.51074 -0.244027 -0.825345 -0.609193 0.82904 -0.266514 -0.125832 0.46262 -0.817681 0.127301 0.23854 -0.387902 0.344263 -0.688585 0.322361 0.021037 -0.203087 -0.221977 -0.462157 0.258948 0.000798 0.282107 -0.004042 0.116566 -0.497844 -0.342594 -0.498933 0.295825 1.306996
银禧科技 -0.871551 -0.245042 -1.009208 -0.059212 -0.111128 -0.077063 0.203147 -0.116458 0.164656 -0.193335 -0.278878 0.041439 -0.219762 -0.125164 0.014915 0.023321 0.228866 0.022326 0.257941 -0.670267 0.107439 0.263664 -0.251146 -0.829357 -0.213713 0.825849 -0.236644 -0.47984 0.197707 -0.470855 0.28328 -0.202231 -0.138043 0.221425 -0.46735 0.054411 -0.213338 -0.270674 0.099444 -0.245205 0.07471 0.183928 0.372084 -0.353863 0.464208 -0.173505 -0.6073 -0.101574 0.395722 0.861223
千红制药 -0.965012 -0.353329 -0.711304 -0.327449 -0.078283 0.048536 0.125838 0.037971 -0.300945 -0.173259 -0.406544 0.301527 -0.031852 0.183843 0.312051 0.11771 0.472466 -0.117175 -0.070482 -0.617897 0.176544 0.370123 -0.110792 -1.190308 -0.548422 0.753484 0.054354 -0.29742 0.204826 -0.602368 0.044188 -0.532931 0.008642 -0.019938 -0.489532 0.204 -0.363907 -0.074515 -0.093 -0.352813 -0.030191 -0.116098 0.344496 -0.1866 0.327911 -0.223818 -0.336289 0.038009 0.280744 0.77409
中航动控 -1.461757 -0.34081 -1.248276 0.087611 0.193217 -0.215784 0.244512 0.213492 -0.031561 0.043235 -0.4128 0.322194 -0.240136 -0.442946 0.224018 0.075221 0.618347 -0.373815 0.247906 -0.571826 0.314061 0.048719 -0.565038 -1.009158 -0.301304 0.664984 -0.138895 -0.280409 -0.011509 -0.865352 0.234699 -0.370989 0.367455 0.346044 -0.565422 0.386335 0.06856 -0.06605 -0.127524 -0.672512 0.121273 0.045585 0.715972 0.102706 0.176852 -0.115334 -0.481841 -0.272833 0.441772 1.104686
棒杰股份 -1.022128 -0.360948 -1.330428 -0.414078 -0.092261 0.279369 0.137599 0.249101 -0.153399 -0.042203 -0.718025 0.563297 0.172716 -0.187931 0.09389 -0.019474 0.337546 -0.106686 0.278269 -0.624084 0.254133 0.287564 -0.444583 -1.031307 -0.371696 0.964654 -0.423499 0.022436 -0.078009 -0.697862 0.315964 -0.22044 0.009793 0.267771 -0.781616 0.409421 -0.132823 -0.395994 -0.029289 -0.667749 0.115445 0.404062 0.521942 -0.175415 0.208604 -0.321874 -0.221871 -0.434501 0.233822 0.821771
北玻股份 -0.693499 -0.423011 -0.916775 -0.170808 -0.026665 0.048721 0.13125 0.091268 0.080498 -0.209361 -0.48126 0.077578 -0.266948 -0.05811 0.083909 0.009458 0.103238 -0.064301 0.14411 -0.538809 0.115131 0.483375 -0.367405 -0.927551 -0.147626 0.908065 0.046681 -0.105331 0.052577 -0.620583 0.426735 -0.155631 0.232304 0.238981 -0.581757 0.187678 -0.190898 -0.051063 0.080296 -0.071112 0.161213 0.064771 0.418972 -0.214731 0.397921 -0.179762 -0.302204 -0.164156 0.3305 0.805605
山西证券 -0.363037 -0.386861 -0.854213 -0.14041 0.389372 1.010145 -0.049294 0.44455 -0.10174 -0.068418 0.637964 0.076212 0.403073 0.097265 0.952496 0.684648 -0.94734 -0.392091 0.268056 -0.728378 -0.021931 0.128852 0.436012 -0.782106 0.372049 -0.120123 0.018046 -0.703997 0.100154 -1.007913 0.717548 -0.615674 0.495984 -0.34619 -1.286594 -0.091393 -0.718187 -0.031394 -0.094923 -0.933239 0.19367 -0.362389 0.66202 -0.745652 0.694027 0.777651 -0.537435 0.274204 0.644227 1.035605
东源电器 -0.804693 -0.339086 -1.072164 -0.167585 0.082403 -0.002385 0.142414 0.050207 0.040274 -0.223292 -0.358789 0.019543 -0.153005 -0.196234 0.171951 -0.238541 0.081561 -0.354864 0.449368 -0.572795 0.077015 0.231432 -0.398911 -0.92224 -0.088372 0.783233 -0.250269 -0.258793 0.208818 -0.680529 0.370621 -0.050531 0.145662 0.298077 -0.338867 0.493645 -0.224718 -0.153224 0.269552 -0.15099 -0.146166 0.088589 0.680766 -0.283203 0.16684 -0.423764 -0.317667 -0.404004 0.412525 0.947693
华平股份 -0.982932 -0.256703 -1.333328 0.031201 -0.115913 -0.181192 0.05833 -0.234247 -0.122084 -0.127301 -0.399972 -0.118284 -0.174729 -0.058984 0.08564 -0.033537 0.360204 -0.123749 0.422963 -0.499088 0.442503 0.371281 0.276603 -0.867658 -0.185176 0.517156 0.059545 -0.2524 -0.121764 -0.707102 0.090244 -0.317639 0.082611 -0.134039 -0.568418 -0.032095 0.013624 0.087171 -0.125939 -0.464674 0.322983 0.16696 0.74254 -0.526492 -0.010904 -0.011189 -0.466723 -0.40947 0.43775 0.931287
山东地矿 -0.507685 -0.289921 -0.626948 -0.18145 0.312027 -0.359046 -0.25631 0.420701 -0.143699 0.073696 -0.762498 -0.089382 -0.243788 0.044494 -0.079563 -0.215684 0.290285 -0.428266 0.291673 -0.333738 -0.113894 0.303618 -0.27947 -0.910377 -0.305222 0.905631 -0.142504 0.022741 0.023886 -0.778316 0.33755 -0.0748 0.172587 0.085493 -0.187638 0.34087 -0.557916 -0.5976 -0.002758 -0.357891 0.061089 -0.066916 0.250231 -0.27761 0.143418 -0.274593 -0.720752 0.190547 0.413368 0.777772
贵州茅台 -0.464392 0.002821 -0.487754 -0.438141 0.195565 0.268001 -0.021462 0.099748 0.325646 -0.076321 0.132649 0.040381 0.03491 0.129991 0.226529 0.091178 0.222155 0.104689 -0.033701 -0.414808 0.010464 0.175524 0.18887 -0.78396 -0.34238 0.547885 0.148052 0.17236 0.164512 -0.564107 0.012937 -0.332318 0.097316 0.30673 -0.594379 0.328264 -0.251283 -0.268454 0.070729 -0.277402 -0.186378 0.291295 0.603948 -0.299503 0.519933 -0.432711 -0.378584 -0.239805 0.235378 0.05416
东方海洋 -0.49203 -0.392689 -0.797976 -0.02507 -0.046805 0.022591 -0.334905 0.180344 0.226112 -0.255501 -0.63488 -0.123023 0.097135 0.136357 0.331649 0.1016 0.594709 -0.307835 -0.100777 -0.633622 0.093582 -0.052196 -0.512992 -0.700448 -0.498337 0.804257 -0.194511 -0.08204 0.196671 -0.593476 -0.163543 -0.122568 0.171892 -0.102254 -0.305107 0.016701 -0.326571 0.01442 0.036565 -0.135251 -0.086777 0.297889 0.312346 -0.293939 0.022187 -0.443871 -0.613272 0.071511 0.083452 0.665683
江苏神通 -1.183846 -0.255926 -1.257092 -0.170298 -0.027587 -0.226991 -0.084335 0.245896 0.431418 -0.067454 -0.373234 -0.200521 -0.19001 -0.086179 0.146231 -0.15096 0.546854 -0.373359 0.014909 -0.753572 0.212709 -0.08576 -0.120226 -0.82719 -0.095129 0.535374 -0.105182 -0.267354 -0.058309 -0.50313 -0.120306 -0.163713 0.132461 0.180044 -0.457187 -0.134496 -0.150954 0.210496 0.09972 -0.592328 0.113637 -0.284543 0.712351 -0.248798 0.056457 -0.55515 -0.696343 -0.182531 0.440954 1.116898
武钢股份 -0.716061 -0.160564 -0.897789 -0.193917 0.273893 0.280098 0.148459 0.455005 0.30776 -0.178594 -0.333444 -0.315538 0.053124 0.426953 0.028244 0.107561 0.091217 0.007898 0.303982 -0.477444 0.028227 0.100563 -0.398552 -0.892017 0.133709 0.457323 -0.128565 -0.416689 -0.008024 -0.723401 0.404381 -0.078841 0.10766 0.192148 -0.737141 0.023527 -0.076448 0.015946 0.113251 -0.458083 -0.148437 0.392725 0.599239 -0.239088 0.402209 -0.611022 -0.416559 -0.289402 0.006908 0.442549
华中数控 -1.0735 -0.221519 -1.232793 -0.220392 0.173683 -0.326012 0.292099 0.011668 -0.1394 -0.060332 -0.461461 0.2356 -0.238272 -0.157923 -0.051167 -0.089858 0.596968 -0.538825 0.266715 -0.691856 0.411989 0.203523 -0.05271 -0.823839 -0.205869 0.835362 -0.196299 -0.269617 0.055075 -0.807391 0.302406 -0.338232 0.262546 0.505003 -0.6396 0.210523 -0.255638 -0.141768 -0.221067 -0.453508 0.526402 -0.118053 0.509875 -0.243823 0.36222 -0.16638 -0.480944 -0.157058 0.175782 0.985346
天润曲轴 -1.041575 -0.380416 -1.250695 -0.284738 0.012265 0.265287 0.071169 0.026625 0.082874 0.128427 -0.394892 0.172482 0.060278 0.067519 -0.280414 -0.025669 0.423353 -0.478888 0.369135 -0.52695 -0.049274 -0.030056 -0.336565 -0.954581 -0.404177 0.895764 -0.350855 -0.233869 -0.378148 -0.682007 0.167209 0.067652 0.112408 0.298315 -0.797606 -0.083769 -0.303304 -0.108019 0.104347 -0.671492 0.164043 0.083271 0.465053 -0.047816 0.072394 -0.21408 -0.373255 -0.47259 0.416214 0.898791
星星科技 -0.839058 -0.566282 -1.259832 -0.178908 -0.062495 0.254991 0.065593 -0.165167 0.055354 -0.235748 -0.486478 0.008538 -0.152286 0.034349 0.010357 -0.162989 0.386297 -0.276865 0.128665 -0.698358 0.120705 0.468496 -0.30354 -0.959124 -0.38488 1.042325 -0.005089 -0.012226 0.105428 -0.649266 0.081512 0.108706 0.057021 0.217725 -0.76327 0.423021 -0.026738 -0.190387 0.076001 -0.31322 0.053983 0.190573 0.686217 -0.35352 0.448377 -0.131331 -0.560439 -0.052364 0.372086 1.008877
南京医药 -0.305918 -0.127633 -0.617499 -0.111891 -0.057339 0.060894 -0.158009 -0.046082 0.137336 -0.435389 -0.277993 -0.061118 -0.142256 0.138063 0.060392 -0.038352 -0.017634 -0.079778 0.325917 -0.405863 -0.057029 0.581377 -0.197708 -0.967942 0.050716 0.760912 0.063165 -0.150972 0.12877 -0.511619 0.480696 -0.14183 0.261735 0.052358 -0.379824 0.303017 -0.482467 -0.160163 0.433855 0.174793 -0.418039 0.05817 0.309033 -0.353319 0.248479 -0.280204 -0.33959 -0.126808 0.081223 0.045264
美亚柏科 -0.845975 -0.279289 -1.325052 -0.147053 -0.179354 -0.202469 0.052513 -0.165109 -0.063478 0.085692 -0.51066 0.052541 -0.085955 -0.243659 0.088854 -0.217067 0.287815 -0.127805 0.183848 -0.75544 0.576511 0.237951 0.046781 -0.797433 -0.266763 0.882454 0.070985 -0.282316 0.032688 -0.671243 -0.155893 -0.525786 0.216791 -0.010578 -0.459211 0.140835 0.179731 -0.103479 -0.344002 -0.43555 0.248713 0.148142 0.697036 -0.267342 0.023021 0.009918 -0.755871 -0.499167 0.030882 0.69317
数源科技 -0.9332 -0.448821 -1.196205 -0.301957 -0.030036 0.312714 0.136656 -0.067961 0.058095 0.07123 -0.700932 -0.064867 -0.081811 0.113105 -0.050132 -0.120747 0.511504 -0.236449 0.078769 -0.910307 0.230895 0.275178 -0.34403 -1.107309 -0.317384 0.982562 -0.155646 0.006369 -0.096236 -1.013785 0.158778 -0.092436 -0.125091 0.217605 -0.432431 0.381015 -0.078687 -0.293762 0.022219 -0.859703 0.249497 0.308784 0.357992 -0.05599 0.148925 0.059623 -0.368521 -0.399241 0.268176 0.938293
阳谷华泰 -0.951195 -0.424347 -1.16385 -0.189612 0.054757 -0.104567 -0.349622 0.105213 -0.110381 -0.031702 -0.734661 0.10688 -0.082055 -0.060281 0.13592 -0.280769 0.372397 -0.104441 0.077909 -0.720023 0.170259 0.147638 -0.232464 -0.841173 -0.327373 0.902181 -0.258381 -0.205706 0.123941 -0.862793 0.226616 -0.086919 0.160644 0.288625 -0.593961 0.337342 0.087762 -0.188257 -0.357633 -0.299333 -0.026261 0.020588 0.388891 -0.185485 0.516426 -0.646481 -0.347056 -0.254341 0.242204 0.809496
铁岭新城 -0.30166 0.091807 -0.672948 -0.330872 0.278726 0.110395 -0.210519 -0.166557 0.054866 -0.155723 0.012439 0.004581 -0.236377 0.04404 0.248214 0.065571 0.145662 -0.171915 0.266629 -0.402774 0.033662 0.107487 -0.437897 -0.601024 0.214826 0.200182 -0.075976 0.181705 0.011099 -0.73372 -0.000754 -0.227566 -0.15857 0.038279 -0.187922 0.063725 -0.15729 -0.078949 0.273505 0.241832 -0.008077 -0.038395 -0.094277 -0.43199 -0.015793 -0.252126 -0.690469 -0.336258 0.475612 0.300142
漳泽电力 -0.299652 -0.165066 -1.157872 -0.135451 0.120328 -0.06239 -0.046336 0.275324 -0.007399 0.020995 -0.368738 -0.054602 -0.33465 0.459437 -0.034064 -0.088548 0.000209 -0.170036 0.435173 -0.378555 0.037351 0.39103 -0.354273 -1.149675 0.364194 0.544423 -0.56936 -0.368818 0.026151 -0.992582 0.476539 -0.22829 0.200427 0.550211 -0.565211 0.552291 -0.278017 0.037014 0.211471 -0.162899 0.117831 0.008528 0.288207 -0.052452 0.270005 -0.436753 -0.776195 -0.273788 0.143062 0.644326
航天通信 -1.053146 -0.282546 -1.244281 -0.004294 0.197163 -0.067301 0.128653 -0.016048 -3.8e-05 0.171555 -0.339614 0.223667 -0.181281 -0.344495 0.206225 -0.069684 0.451622 -0.347841 0.260237 -0.604582 0.291484 0.314341 -0.243307 -1.076301 -0.495162 0.985851 -0.37039 -0.31982 -0.110314 -0.701507 0.414206 -0.423316 0.161422 0.251801 -0.444839 0.468629 0.029167 -0.371673 -0.043255 -0.406806 0.045973 0.142243 0.670681 -0.036456 0.146334 -0.300935 -0.527947 -0.203679 0.307911 0.757993
万方发展 -0.981328 -0.424701 -1.082195 -0.426878 0.117303 0.050527 0.12228 0.115243 0.029283 0.248775 -0.610547 0.569221 0.034863 0.005312 0.180019 -0.230415 0.384756 -0.431642 0.060778 -0.659057 0.423946 0.177231 -0.632657 -1.106911 -0.008143 0.686343 -0.253245 0.036593 0.159382 -1.055218 0.277583 -0.202316 -0.116796 0.100475 -0.535948 0.580822 -0.027595 -0.176484 0.146451 -0.358917 0.038132 0.06453 0.602162 -0.251688 -0.14665 -0.185371 -0.664622 -0.422305 0.401783 0.784258
华伍股份 -0.947004 -0.172459 -1.118351 -0.167389 0.111556 -0.090724 0.017734 -0.064563 -0.147219 -0.070031 -0.313405 0.087679 -0.164272 -0.016173 -0.155191 0.101969 0.34136 -0.444554 0.324189 -0.426239 0.270079 0.284145 -0.304967 -0.934296 -0.359023 0.990796 -0.157743 -0.38894 -0.025322 -0.640624 0.311666 0.20666 0.222994 0.222799 -0.688155 -0.005926 -0.038338 -0.096049 0.316921 -0.314266 0.089204 0.189821 0.29502 -0.108991 0.156016 -0.380804 -0.479218 -0.1694 0.280226 0.955094
吉林高速 -0.749567 -0.037965 -0.768273 -0.203624 0.158662 0.061608 -0.052363 0.425896 -0.290339 0.093048 -0.222397 0.172533 -0.002124 -0.270522 0.108444 -0.146125 0.651338 -0.315006 0.590764 -0.059872 0.405699 0.394368 -0.577305 -1.125596 -0.534771 0.264597 -0.303966 -0.190768 0.103939 -0.964314 0.092627 0.234462 0.019822 -0.278999 -0.406563 0.449343 0.467908 -0.116762 0.559192 -0.694803 0.24013 0.248428 0.192509 -0.223329 -0.071676 -0.568629 -0.817733 -0.476266 -0.002226 0.946434
吉林森工 -0.589574 -0.257633 -0.8778 0.000313 -0.276351 0.029429 -0.024224 0.418663 0.137633 -0.03532 -0.618869 0.327898 -0.211136 0.10462 -0.094005 -0.082126 0.524706 -0.418324 -0.201586 -0.261353 0.200386 0.03825 -0.554518 -0.880515 -0.170561 0.992969 -0.178532 0.279983 0.292495 -0.770029 0.310988 -0.416188 0.051192 0.193787 -0.720167 0.465129 -0.155014 -0.18277 -0.080167 -0.158329 0.087454 0.032907 0.243477 -0.066061 0.207773 -0.603498 -0.779742 -0.13942 0.309676 0.925463
